2019/04/14,17:50:41
0/3,3/3
0.0,0.0,0.0,0.0,0.0,0.0,0.0,0.0,0.0
2019/04/14,21:37:30
1/11,0/11
-0.042276478041508324,-0.04625710578659667,-0.010678041712645338,-0.020122895321655888,-0.0040290923536112026,-0.02986271345524288,-0.026299007482025627,-0.04795705209553997,-0.04568281743250094
2019/04/14,21:37:37
2/11,0/11
-0.03818075015893344,-0.02889444333667246,0.02309355158441985,0.025431057811450188,0.04450225989557125,-4.42000379056659E-6,0.011727571657804518,-0.0037454264805628565,-0.01461992327853218
2019/04/14,21:37:40
2/11,1/11
0.0,0.0,0.0,0.0,0.0,0.0,0.0,0.0,0.0
2019/04/14,21:37:44
3/11,1/11
-0.008164853566437825,-0.026926936086646522,-0.02238019887065855,-0.038006154083634835,-0.01623784493402211,-0.049820890583711856,-0.0469524123198793,-0.04209216905764456,-0.010006180575840696
2019/04/14,21:37:49
3/11,2/11
0.0015709221538876984,0.01585322820464996,0.005525432379320908,-0.016211475958838484,0.03125833227859043,-0.011709100914313458,-0.01045197171253856,-0.011446814919430084,-0.0016510050713592905
2019/04/14,21:37:52
4/11,2/11
-0.03818075015893344,-0.02889444333667246,0.02309355158441985,0.025431057811450188,0.04450225989557125,-4.42000379056659E-6,0.011727571657804518,-0.0037454264805628565,-0.01461992327853218
2019/04/14,21:37:55
5/11,2/11
-0.019018962437052766,0.021035745125996014,0.012473752545698798,0.008189258509627036,0.005069733612459278,0.03498175894370033,-0.012987456353290114,0.015508886242434641,0.014715014784965327
2019/04/14,21:37:57
5/11,3/11
0.02875649943143471,0.01684017816321002,2.7371067598464666E-4,0.007118977144569124,-0.009417544048294368,0.008923265107630154,0.008979436034591975,-0.021186763396101475,-0.024356528030361535
2019/04/14,21:37:59
6/11,3/11
0.0015709221538876984,0.01585322820464996,0.005525432379320908,-0.016211475958838484,0.03125833227859043,-0.011709100914313458,-0.01045197171253856,-0.011446814919430084,-0.0016510050713592905
2019/04/14,21:38:01
6/11,4/11
-0.030891339870574415,-0.01757034544902466,-0.018401517484984902,-0.004419882665033419,0.018995511272924225,0.02937238090690139,0.010412496061838968,-7.801256285715173E-4,0.005117103186828143
2019/04/14,21:40:25
1/11,0/11
0.00961499278116152,0.03069713344487135,-0.01756128347579711,0.03675713512322179,-0.03095785920108527,0.012717609196155742,-0.015079708425073501,0.04921909691950101,-0.028039059986698138
2019/04/14,21:40:28
1/11,1/11
0.027430483184461344,0.03687469049711943,-0.04246221146104909,0.03968263004601563,-0.08046951707609093,0.020950596814855893,-0.038778869096643104,0.0726456687737372,-0.07251429243564178
2019/04/14,21:40:30
2/11,1/11
0.0259439752138922,0.036299671634045544,-0.004386941397468758,-0.009000772662181383,-0.07081621597028546,-0.024072499011297273,0.010876765009529561,0.041580850209320924,-0.06169652463666363
2019/04/14,21:40:31
2/11,2/11
0.0364379492834332,0.05122769930512751,-0.03286940618560391,-0.01429479727591403,-0.11655357880613004,-0.059087319732296806,0.029833167410879994,0.05794861589850507,-0.07408395907946626
2019/04/14,21:40:33
2/11,3/11
0.041023115688540224,0.0851204576981883,-0.0747512659089475,-0.059068694631260896,-0.12963938325125401,-0.08379319337417326,0.0719189604867715,0.07198488838579395,-0.07803591013216839
2019/04/14,21:40:36
2/11,4/11
0.08991938844005906,0.11650916077325682,-0.10633935516764495,-0.08572161424430913,-0.16205852559963874,-0.09286121518504292,0.0799468330998347,0.08331871770267414,-0.12553351406406232
2019/04/14,21:40:40
3/11,4/11
0.12572111404796324,0.16535119565520304,-0.11684041796359966,-0.13170930732255723,-0.1866988207743781,-0.13432435705211826,0.10513366042014433,0.12457405644717653,-0.12689002887498183
2019/04/14,21:40:43
3/11,5/11
0.1620092998675447,0.2092161493088049,-0.13475631199191154,-0.13784846470278472,-0.20806499060618294,-0.18000116334166064,0.1505446711310175,0.15356801449674673,-0.16456746134914615
2019/04/14,21:40:44
3/11,6/11
0.20113415275851307,0.24100943261797908,-0.16777550336723268,-0.1686944157994949,-0.25231896610968346,-0.2122546952459356,0.15834871353406088,0.1552631104176498,-0.20113018474450123
2019/04/14,21:40:46
3/11,7/11
0.24504760900804187,0.2538051964603047,-0.17417763152398286,-0.20943996863902842,-0.2548950857456972,-0.22177320279666737,0.16696735489288964,0.17864212170306748,-0.21842780785281596
2019/04/14,21:40:49
3/11,8/11
0.27178412421345916,0.2611767802018399,-0.19127037662286453,-0.22407540010709187,-0.2894166688509326,-0.25570500460010953,0.20331345966579617,0.22603601689845962,-0.21971429736171313
2019/04/14,21:40:50
4/11,8/11
0.315708237214779,0.2810114932755067,-0.22087341158300658,-0.23595253199262645,-0.3009580106041867,-0.2899547094943776,0.2463021228637493,0.22963068807341008,-0.2461058952065034
2019/04/14,21:40:52
5/11,8/11
0.3518838749650413,0.32552754723814475,-0.23261466039722106,-0.27667062551232424,-0.32837060736898827,-0.3335104704486127,0.2857789477561899,0.2768060385046747,-0.29187896044362194
2019/04/14,21:40:55
5/11,9/11
0.40125266032068946,0.3740172871497447,-0.28080405808718323,-0.2866231080782993,-0.3318997334314183,-0.33697910337940745,0.3081497261100539,0.3132884773052311,-0.3027838822543359
2019/04/14,21:41:00
6/11,9/11
0.431569847120621,0.4003686116644754,-0.29958899228743585,-0.3059190172881655,-0.38116873140699126,-0.34100404803455353,0.3567006321132604,0.3144140476641055,-0.3302699471264359
2019/04/14,21:41:07
6/11,10/11
0.4549914742381771,0.40672750336302327,-0.30714364438616193,-0.3110182531615674,-0.4298275347286534,-0.386005027073075,0.37679832942314817,0.3288855676589386,-0.3605320265255043
2019/04/14,21:41:09
6/11,11/11
0.476607582752016,0.45060875727792277,-0.3234466741937716,-0.3410787647472365,-0.4350544981758269,-0.4074945648533899,0.39279509503039967,0.3403139832113602,-0.3722671152340864
2019/04/14,21:41:45
0/11,1/11
0.5062531540958072,0.47718317883053263,-0.3321038784364067,-0.358770074803564,-0.4799959254201147,-0.42337416716321197,0.3944677201030238,0.3462150214438193,-0.38427429957354076
2019/04/14,21:41:47
1/11,1/11
0.5395378683884325,0.49141502181254243,-0.33514711870019953,-0.3611745616057953,-0.5284815956305685,-0.4370469961067763,0.4159127393519648,0.3793187918913603,-0.39025074295753237
2019/04/14,21:41:49
2/11,1/11
0.511421228145902,0.46010538683820174,-0.2884907403089733,-0.32674801165896344,-0.48551222569229135,-0.4344570611367932,0.3719278172471658,0.35420971427446274,-0.3692102618658158
2019/04/14,21:41:51
2/11,2/11
0.5119273794796716,0.4848551936892937,-0.33324601707789303,-0.36066574601204265,-0.5286120344381376,-0.4662169589489372,0.39489626105295306,0.3778582450186128,-0.3716562796756345
2019/04/14,21:41:54
2/11,3/11
0.5223057046882303,0.5039182966907233,-0.3805175847540222,-0.3984777925665146,-0.5747154447963715,-0.5144213321200781,0.4347347110457971,0.39509757537351,-0.39991047672646185
2019/04/14,21:41:57
4/11,3/11
0.5152015699530331,0.49178515803594286,-0.34297301244004896,-0.3560119170350102,-0.5723117670661556,-0.49194250485890406,0.395102609536974,0.3772359317367785,-0.38773563478391826
2019/04/14,21:42:00
5/11,3/11
0.4877010385366625,0.47552737268778006,-0.33760760111583543,-0.3174623618018227,-0.571885754175988,-0.4909631309521256,0.3936607874978257,0.32785420666234466,-0.3789446922884679
2019/04/14,21:42:01
6/11,3/11
0.476607582752016,0.45060875727792277,-0.3234466741937716,-0.3410787647472365,-0.4350544981758269,-0.4074945648533899,0.39279509503039967,0.3403139832113602,-0.3722671152340864
2019/04/14,21:42:03
7/11,3/11
0.45982163099649587,0.4211185460292804,-0.28312891524630024,-0.2914182860414502,-0.39802785546570085,-0.3750866736748248,0.3844630517577692,0.3353251779314376,-0.32872918134478746
2019/04/14,21:42:07
7/11,4/11
0.4202910856644261,0.38563136928583763,-0.24305437875541555,-0.27837090678078574,-0.37997252542643795,-0.3314170594625502,0.3646428127590103,0.28706051934198235,-0.31925342179380534
2019/04/14,21:42:08
8/11,4/11
0.4877010385366625,0.47552737268778006,-0.33760760111583543,-0.3174623618018227,-0.571885754175988,-0.4909631309521256,0.3936607874978257,0.32785420666234466,-0.3789446922884679
2019/04/14,21:42:12
10/11,4/11
0.4433023323804342,0.4676471638715336,-0.3368882523148635,-0.2691073229759946,-0.5404666228397964,-0.45825233455444475,0.38217948732158186,0.28092019201078966,-0.3674814556464525
2019/04/14,21:42:15
11/11,4/11
0.4072860689719724,0.4591708114561923,-0.3114020229648558,-0.2492846744072105,-0.5369577832533695,-0.42222386458715977,0.35439861438089126,0.2613163647563843,-0.3491612572723126
2019/04/14,21:43:23
0/11,1/11
0.41223540224109967,0.4758357688195959,-0.3577792747628408,-0.2947099471809303,-0.5542074276489813,-0.43945458320976605,0.39461066297817277,0.2876737524710026,-0.39618859183186816
2019/04/14,21:43:25
2/11,1/11
0.3900163734327462,0.44246833044943756,-0.34464162959264444,-0.2857187760950788,-0.5098839405814675,-0.4250068152988894,0.35430670604997694,0.26947107707451035,-0.3577577845567442
2019/04/14,21:43:26
2/11,2/11
0.43673198340786423,0.4567439918800336,-0.36067149669833676,-0.29575440831012667,-0.5517955662409538,-0.43226854500988926,0.3713406385494049,0.30971581389912406,-0.3734848123480257
2019/04/14,21:43:28
2/11,3/11
0.47082898096016956,0.49836256789815886,-0.4043041747202621,-0.34046120375676575,-0.5812700624732454,-0.43717047284438854,0.4163580926478147,0.3337200837640706,-0.37777908061891274
2019/04/14,21:43:29
2/11,4/11
0.4779915172141007,0.5086450356353085,-0.42894513136044377,-0.3530073752401461,-0.6275847670049395,-0.48565639452749076,0.464405850992615,0.3337300888309487,-0.39021579465442163
2019/04/14,21:43:31
2/11,5/11
0.4980986649898112,0.5370874065566276,-0.4734647536517575,-0.363329581644784,-0.6315952705463136,-0.5264558629511591,0.469179402287518,0.36879369696348707,-0.4078713839146878
2019/04/14,21:43:33
3/11,5/11
0.5060621724273193,0.5630816845649138,-0.4960190293808773,-0.3890251098108563,-0.6684010416317185,-0.5538081422813947,0.48836956955347477,0.39258641174532466,-0.4166493006966268
2019/04/14,21:43:34
3/11,8/11
0.5461297512074493,0.59165879524935,-0.5273930995883699,-0.4253629937320142,-0.6910220929307241,-0.5772342833562438,0.5311980893931647,0.42976077638043636,-0.42625044369104165
2019/04/14,21:43:38
3/11,9/11
0.5717033751332745,0.5927429025436293,-0.5697357116172093,-0.46909963638433566,-0.727358273678511,-0.6041319459217409,0.568492352954336,0.44678816541547156,-0.46456705664126974
2019/04/14,21:43:41
3/11,10/11
0.5976444851978971,0.6142178848713699,-0.5901798708227475,-0.4979621284322189,-0.7363651609454885,-0.6130413422388182,0.581913051617955,0.4640125877862633,-0.4955144755460209
2019/04/14,21:43:43
4/11,10/11
0.6016555372928215,0.6367739893975848,-0.638960199925219,-0.5163556849296301,-0.7449320466428677,-0.651359962737587,0.5943468001275762,0.4778097492099701,-0.5108159273818036
2019/04/14,21:43:44
4/11,11/11
0.6448837917932689,0.6743950375412345,-0.6477241243936894,-0.5414648129275639,-0.7730050083519595,-0.6682180779206383,0.6423350729043664,0.49456672722661743,-0.5276327287458749
2019/04/14,21:44:06
1/21,0/21
0.6005245808038524,0.6520103878521272,-0.6055131881851921,-0.5373125851789663,-0.7479651274876453,-0.6664052915728433,0.6107073393289347,0.48681720110779336,-0.4845010252385967
2019/04/14,21:44:07
1/21,1/21
0.6444359903876294,0.6972138253611007,-0.631770057315482,-0.542895015138556,-0.791630286652098,-0.6724421937157559,0.6160348481755683,0.49149774130466917,-0.5030728704151908
2019/04/14,21:44:08
3/21,1/21
0.6099511330887225,0.6666510289415659,-0.5930858795209516,-0.5002485541800772,-0.7879268568144456,-0.6303740019559378,0.5775139434460315,0.47572293505190866,-0.4706371040074091
2019/04/14,21:44:09
3/21,2/21
0.587567707375166,0.6487959555952859,-0.5581534992894153,-0.4838130381125668,-0.7436954917590877,-0.5828370077814021,0.5660104560693213,0.45807438476483126,-0.43433243898440205
2019/04/14,21:44:09
3/21,3/21
0.6302323372142258,0.6541943674283812,-0.5839837600295947,-0.5087691194258391,-0.7598697095657609,-0.6186321727613278,0.5768741948102512,0.48474151743401706,-0.43764784215103764
2019/04/14,21:44:12
5/21,3/21
0.6072436123597962,0.6343579569333,-0.5389349150171677,-0.4760898593955806,-0.7215532644295343,-0.5762622890113245,0.5392787001825854,0.4678120222856633,-0.41252527055220334
2019/04/14,21:44:13
6/21,3/21
0.5855208129966066,0.6042755013378583,-0.5286362484397678,-0.43750832276723295,-0.6730619640113803,-0.5530601783878355,0.508090547030071,0.42417460231812737,-0.39231984472703196
2019/04/14,21:44:16
7/21,3/21
0.6448837917932689,0.6743950375412345,-0.6477241243936894,-0.5414648129275639,-0.7730050083519595,-0.6682180779206383,0.6423350729043664,0.49456672722661743,-0.5276327287458749
2019/04/14,21:44:17
7/21,4/21
0.6036034900358596,0.6491904046235222,-0.6444483580137009,-0.515860614511225,-0.7502005574550344,-0.6552215642755563,0.5965656008165958,0.4611096449972402,-0.49785800535796687
2019/04/14,21:44:19
7/21,5/21
0.5865997615570597,0.6124284634560911,-0.6003625855001784,-0.4734887793928584,-0.7454778732559959,-0.6434628822763429,0.5686380100736776,0.4576804431423985,-0.45679525698767015
2019/04/14,21:44:22
8/21,5/21
0.5855208129966066,0.6042755013378583,-0.5286362484397678,-0.43750832276723295,-0.6730619640113803,-0.5530601783878355,0.508090547030071,0.42417460231812737,-0.39231984472703196
2019/04/14,21:44:24
8/21,6/21
0.5611788973349898,0.5974959388107028,-0.524562010193595,-0.43495160060267696,-0.6437598193571203,-0.5239147783010512,0.4985270989130213,0.41842079625806994,-0.36585056972747243
2019/04/14,21:44:25
8/21,8/21
0.5614989258247924,0.6058580905078995,-0.538859379051051,-0.44066782569553,-0.6628056318663513,-0.5601412980243755,0.5048941920451574,0.45480939077992394,-0.38273663571614736
2019/04/14,21:44:27
9/21,8/21
0.5319057722366604,0.5689953830772091,-0.5000112964432731,-0.4184895624293801,-0.6487338573209834,-0.5184424122054191,0.45824282740147965,0.4142376470739862,-0.3399588213873684
2019/04/14,21:44:30
10/21,8/21
0.5293262353540151,0.5293252071100624,-0.4969520541351926,-0.4089145526057779,-0.6037818555133541,-0.47878935102538017,0.42520011929860635,0.3862303173920092,-0.31954079148025366
2019/04/14,21:44:32
12/21,8/21
0.5865997615570597,0.6124284634560911,-0.6003625855001784,-0.4734887793928584,-0.7454778732559959,-0.6434628822763429,0.5686380100736776,0.4576804431423985,-0.45679525698767015
2019/04/14,21:44:34
12/21,9/21
0.5593834153859772,0.5701684240504488,-0.5961296326170747,-0.44098058947644264,-0.713386802496495,-0.5944822699237392,0.5322858943997341,0.44722194285466105,-0.41107173801743246
2019/04/14,21:44:36
12/21,10/21
0.5559863500685649,0.5276840057049998,-0.5628256004242536,-0.43527578268270417,-0.6990089169666418,-0.5842177527026442,0.5313117025394744,0.41321029509018414,-0.3633269678839883
2019/04/14,21:44:38
13/21,10/21
0.5293262353540151,0.5293252071100624,-0.4969520541351926,-0.4089145526057779,-0.6037818555133541,-0.47878935102538017,0.42520011929860635,0.3862303173920092,-0.31954079148025366
2019/04/14,21:44:41
13/21,12/21
0.528926241444015,0.5286804098406696,-0.4798019798064954,-0.40869728787866266,-0.5795674101121988,-0.44056121925787906,0.37715802813986465,0.37281343720424653,-0.28793258980968117
2019/04/14,21:44:44
13/21,13/21
0.5342766085880244,0.5395616626184091,-0.486009644166596,-0.4462650860823503,-0.5882238939130533,-0.48365098974372805,0.3832746533487606,0.39529944259634725,-0.29811952100908345
2019/04/14,21:44:46
14/21,13/21
0.4849753456400778,0.502507661252871,-0.439445166764976,-0.4363991920087855,-0.555254874956475,-0.4824117637604856,0.346898041704676,0.3893562201245504,-0.253281524454518
2019/04/14,21:44:48
14/21,15/21
0.49508671601858373,0.5116800069352216,-0.479930774511537,-0.47526517397597545,-0.5745921692590277,-0.5226396407144054,0.38196750665248463,0.3936325322132849,-0.27599299291860613
2019/04/14,21:44:51
16/21,15/21
0.4497058905425263,0.5047588175788487,-0.4700257057918495,-0.4433592794201167,-0.5646003255872486,-0.521217602553321,0.3694445004358865,0.391170348905564,-0.2297176431915793
2019/04/14,21:44:53
18/21,15/21
0.4251278558112304,0.4724514854194687,-0.4325157387537013,-0.4061018742807487,-0.5616549597525992,-0.49129972447837217,0.3348771208382109,0.39079722379886683,-0.19450210036975296
2019/04/14,21:44:56
19/21,15/21
0.5559863500685649,0.5276840057049998,-0.5628256004242536,-0.43527578268270417,-0.6990089169666418,-0.5842177527026442,0.5313117025394744,0.41321029509018414,-0.3633269678839883
2019/04/14,21:44:57
20/21,15/21
0.5347209872391475,0.5262905436026002,-0.546364252106022,-0.39219766265036365,-0.6832099423369264,-0.5361392431050127,0.5088514444746073,0.40161532254119775,-0.35809962756057495
2019/04/14,21:45:00
20/21,16/21
0.5122384524312652,0.5028455445254874,-0.5119067577707779,-0.3682953404743904,-0.6411773007115306,-0.49337523614385237,0.5028992792568264,0.39268238404109623,-0.3327393514739856
2019/04/14,21:45:02
21/21,16/21
0.4251278558112304,0.4724514854194687,-0.4325157387537013,-0.4061018742807487,-0.5616549597525992,-0.49129972447837217,0.3348771208382109,0.39079722379886683,-0.19450210036975296
2019/04/14,21:48:19
0/51,1/51
0.4532150154762295,0.5036486472464422,-0.46311909010602104,-0.44742514393282645,-0.5877433721648856,-0.5206469402076429,0.36412375699663985,0.43461288425874567,-0.20216160743090536
2019/04/14,21:48:21
1/51,1/51
0.49230262097314603,0.5205106915808285,-0.507443820711318,-0.464722620825644,-0.5923993047489203,-0.565735870808343,0.40556713732231775,0.4511277396241552,-0.23831620654892482
2019/04/14,21:48:23
1/51,2/51
0.5074108404806522,0.5230415975056798,-0.5361907453500983,-0.4690332638417579,-0.6307707677631824,-0.5772776200626584,0.431398648010424,0.4865253570784401,-0.2559678534797781
2019/04/14,21:48:25
2/51,2/51
0.5508837835685595,0.5678172623883108,-0.5565558508186075,-0.5132891934984265,-0.6753968490353542,-0.6139382327232403,0.46034275432084903,0.4943050793328104,-0.29148327843728755
2019/04/14,21:48:26
3/51,2/51
0.5372524065904987,0.555339359310723,-0.5222487808564951,-0.4946119606978019,-0.6414716843181618,-0.606671617461608,0.4414486014308512,0.47685900105508605,-0.2586635214233338
2019/04/14,21:48:31
4/51,2/51
0.524004833134222,0.5209407093201621,-0.5062336922679108,-0.4863829177352295,-0.6018061526996002,-0.6011177606392092,0.3945225830303874,0.443670342844085,-0.2515644199330999
2019/04/14,21:48:35
4/51,3/51
0.4251278558112304,0.4724514854194687,-0.4325157387537013,-0.4061018742807487,-0.5616549597525992,-0.49129972447837217,0.3348771208382109,0.39079722379886683,-0.19450210036975296
2019/04/14,21:48:36
4/51,4/51
0.42661091674455587,0.49988423913186686,-0.4528290271882663,-0.407597293187268,-0.5994029094888026,-0.5085194076906008,0.3748942280435048,0.3920515900964474,-0.19870062880334982
2019/04/14,21:48:38
4/51,5/51
0.4545160091967959,0.5348503129414106,-0.4883753770611558,-0.4437066619119272,-0.6258520685613913,-0.516790356883318,0.3966782536063886,0.408647937188975,-0.1988353727338293
2019/04/14,21:48:39
4/51,6/51
0.49851951581360304,0.5654062521041515,-0.5277196904394487,-0.4560813831582471,-0.6269940567368757,-0.5649960753008422,0.4140917762663432,0.4324453730197082,-0.19926757346195054
2019/04/14,21:48:42
6/51,6/51
0.5167608367597541,0.5675417574348547,-0.5323646643354243,-0.497075554400485,-0.6416858739562734,-0.6140408969520972,0.42517177568416015,0.45446962732001867,-0.21188653552596523
2019/04/14,21:48:44
6/51,7/51
0.5306975881353476,0.5722165182885978,-0.5665897388972645,-0.5398439756452941,-0.6598705333524088,-0.6621604822778343,0.4342781414680809,0.4973087287986624,-0.2349494269062797
2019/04/14,21:48:45
7/51,7/51
0.5350092922975327,0.5998246203877171,-0.6163314252729348,-0.5833923866916356,-0.6942018065052954,-0.6642609229086416,0.45314443620072853,0.5339067650501751,-0.2589322991196733
2019/04/14,21:48:47
8/51,7/51
0.4873841071147836,0.5531817087404407,-0.5730829030551999,-0.5717704432790544,-0.6865519334597583,-0.6414800581653152,0.42679049789091006,0.48751142358894084,-0.2189537985687675
2019/04/14,21:48:48
9/51,7/51
0.4701227063804912,0.5333208469969644,-0.5417906109164058,-0.5373305871071571,-0.6712217362862826,-0.6304712479325337,0.37781580202050036,0.4829695346426221,-0.21134154881401535
2019/04/14,21:48:52
9/51,8/51
0.524004833134222,0.5209407093201621,-0.5062336922679108,-0.4863829177352295,-0.6018061526996002,-0.6011177606392092,0.3945225830303874,0.443670342844085,-0.2515644199330999
2019/04/14,21:48:55
10/51,8/51
0.47753215640185737,0.4732409818375523,-0.4802775159213227,-0.4418812983812724,-0.5948460657580574,-0.5682366209308254,0.39435784217913356,0.41201808591453853,-0.24633010528264285
2019/04/14,21:48:56
11/51,8/51
0.47644968433083584,0.43962886750916824,-0.46794061151058425,-0.4361865255488791,-0.5657904140995563,-0.553103830679771,0.38521930947226424,0.3788277668100711,-0.2030498816441184
2019/04/14,21:48:57
11/51,9/51
0.4701227063804912,0.5333208469969644,-0.5417906109164058,-0.5373305871071571,-0.6712217362862826,-0.6304712479325337,0.37781580202050036,0.4829695346426221,-0.21134154881401535
2019/04/14,21:48:58
12/51,9/51
0.44454197530460576,0.5280479262038632,-0.5173995747307877,-0.4908771709517417,-0.6402371147071421,-0.625655932674273,0.3301022862378884,0.4506154235697265,-0.17148331354347185
2019/04/14,21:49:02
12/51,10/51
0.41813608372387806,0.5240634047727046,-0.5099627099849485,-0.46320997152527005,-0.6258966217974027,-0.6054912324602718,0.3019917190006842,0.44291813006298264,-0.13296174611570027
2019/04/14,21:49:04
13/51,10/51
0.47644968433083584,0.43962886750916824,-0.46794061151058425,-0.4361865255488791,-0.5657904140995563,-0.553103830679771,0.38521930947226424,0.3788277668100711,-0.2030498816441184
2019/04/14,21:49:06
13/51,11/51
0.4756782889048824,0.4299993495593876,-0.4576721600257811,-0.39245651879894133,-0.5505826536379885,-0.5245753704643169,0.3483766430243194,0.3786676436410079,-0.15987253974215818
2019/04/14,21:49:09
13/51,12/51
0.45305448686310024,0.4068375998932769,-0.4431252534381289,-0.38524912814859624,-0.5113105283007148,-0.5245419310124215,0.3382078050350168,0.3327239264956363,-0.12238682983269569
2019/04/14,21:49:10
15/51,12/51
0.41813608372387806,0.5240634047727046,-0.5099627099849485,-0.46320997152527005,-0.6258966217974027,-0.6054912324602718,0.3019917190006842,0.44291813006298264,-0.13296174611570027
2019/04/14,21:49:11
15/51,14/51
0.38466086965103247,0.5019269376430029,-0.4807861576167777,-0.4484866754807709,-0.616424907126575,-0.5562141834754635,0.2573085821673705,0.4364159683081716,-0.0908407051718483
2019/04/14,21:49:15
16/51,14/51
0.3638474123040192,0.4748321852531989,-0.45214099796580537,-0.42104423236614213,-0.5679803703909398,-0.5181778602599344,0.24773517428126673,0.4012891079527181,-0.05806333455308868
2019/04/14,21:49:20
18/51,14/51
0.45305448686310024,0.4068375998932769,-0.4431252534381289,-0.38524912814859624,-0.5113105283007148,-0.5245419310124215,0.3382078050350168,0.3327239264956363,-0.12238682983269569
2019/04/14,21:49:23
19/51,14/51
0.41269709221527895,0.378227587188637,-0.43780579284837795,-0.3375210460329879,-0.48998092702495344,-0.5196839016669524,0.303390565284023,0.32140683666969105,-0.07943395117185245
2019/04/14,21:49:24
19/51,15/51
0.40036594165468015,0.338145278521642,-0.4165296936153356,-0.3153167668646105,-0.4660784832321708,-0.5055125184045659,0.25523320054325915,0.2882331766252759,-0.029713645377658394
2019/04/14,21:49:27
19/51,16/51
0.3638474123040192,0.4748321852531989,-0.45214099796580537,-0.42104423236614213,-0.5679803703909398,-0.5181778602599344,0.24773517428126673,0.4012891079527181,-0.05806333455308868
2019/04/14,21:49:29
19/51,18/51
0.3451997973951746,0.46985783521328334,-0.449383783946098,-0.3973439785600432,-0.5274972954067746,-0.4942830872745936,0.23900962898978714,0.359161072587447,-0.016831016881115456
2019/04/14,21:49:35
20/51,18/51
0.3083361613682404,0.433407068408096,-0.4051594574170345,-0.3512314103245825,-0.4899626092594428,-0.4869279125082284,0.2158013849011977,0.3291793982411612,-0.0024247062242296648
2019/04/14,21:49:40
20/51,19/51
0.40036594165468015,0.338145278521642,-0.4165296936153356,-0.3153167668646105,-0.4660784832321708,-0.5055125184045659,0.25523320054325915,0.2882331766252759,-0.029713645377658394
2019/04/14,21:49:41
20/51,20/51
0.43725773072338575,0.36579038514718115,-0.4248480823244631,-0.3367623318731455,-0.4758102525571072,-0.5525762453925798,0.2943716479216496,0.3246353989617874,-0.07559001000105069
2019/04/14,21:49:46
20/51,21/51
0.4404567359334272,0.3836243358612378,-0.4308671196381346,-0.3733864126035545,-0.5043298710021528,-0.5883094531110027,0.32083648428131173,0.348080901957426,-0.10421139066555771
2019/04/14,21:49:48
21/51,21/51
0.46945138908206047,0.41731523081471233,-0.47583846984195377,-0.4107969347057296,-0.5086575675851154,-0.6225752240364254,0.3592945305913775,0.37443523722302186,-0.13771367841594917
2019/04/14,21:49:49
21/51,22/51
0.47973937021861585,0.42623607962219073,-0.4771478768157701,-0.4337150214134921,-0.5469127788713943,-0.6349164941819236,0.3836513829453496,0.3925381630215664,-0.17286333111822463
2019/04/14,21:49:57
21/51,24/51
0.52784578862442,0.4717664632374525,-0.5100742275327154,-0.44423206647053753,-0.5956901577922552,-0.6480854791818427,0.4238073429141959,0.43058923911260727,-0.21602705867774816
2019/04/14,21:49:58
22/51,24/51
0.5478477382897586,0.47924923747241466,-0.5292326884368633,-0.4547827711091718,-0.6437295335274796,-0.6642294951337627,0.4593417249838007,0.44189461710209926,-0.26408705797448817
2019/04/14,21:49:59
22/51,25/51
0.5744411383323794,0.5186516141101017,-0.5606923387403361,-0.45678172924472377,-0.6915654704347467,-0.6957289673921129,0.5008162283043972,0.48259047792158455,-0.28225212773748193
2019/04/14,21:50:04
22/51,26/51
0.5910280527223571,0.5467276546458681,-0.5722030072279513,-0.49795633756052043,-0.7374770856370865,-0.7198967393806679,0.5123295699086,0.4926957806005028,-0.2982016979150832
2019/04/14,21:50:05
23/51,26/51
0.6190761908913752,0.5886634671423093,-0.620060358842658,-0.5253484188710741,-0.7512671889789098,-0.7208602456556583,0.5508153374350369,0.5114582334849982,-0.3228185664425407
2019/04/14,21:50:06
24/51,26/51
0.6485231320330718,0.6127635844456035,-0.6329170035415606,-0.5443101188192362,-0.7747760370161975,-0.7641125134733988,0.5742994290141488,0.5451046965883384,-0.34961161789582323
2019/04/14,21:50:09
25/51,26/51
0.6669199487104998,0.6553867934202123,-0.6552997139562331,-0.5818878926375544,-0.8199714503770038,-0.8080617557743663,0.6146161636207008,0.5867686386903065,-0.3551556312155869
2019/04/14,21:50:10
25/51,27/51
0.6987637252293304,0.6761350223301867,-0.7030538745013669,-0.6041999611390052,-0.8567964109636677,-0.8445850585799312,0.6613853513536148,0.5897853102984341,-0.39946411312472896
2019/04/14,21:50:11
27/51,27/51
0.7249599643360713,0.7155617475628258,-0.7172221108247057,-0.6093622950622645,-0.9012511129210808,-0.8446336487307602,0.6870264445645599,0.6240371513424082,-0.4388448241369404
2019/04/14,21:50:12
29/51,27/51
0.6790238827450594,0.6848317015322569,-0.6838131057560766,-0.5990853118986746,-0.881571908023458,-0.8074875623021585,0.6460013653454467,0.5759575335958818,-0.4027141217900261
2019/04/14,21:50:13
30/51,27/51
0.6302256394804059,0.6819646060967602,-0.6749442939396326,-0.5731228323082419,-0.8374753119361759,-0.7782493663305077,0.6170979352581715,0.5462095073880084,-0.3963416712484059
2019/04/14,21:50:14
30/51,29/51
0.3083361613682404,0.433407068408096,-0.4051594574170345,-0.3512314103245825,-0.4899626092594428,-0.4869279125082284,0.2158013849011977,0.3291793982411612,-0.0024247062242296648
2019/04/14,21:50:16
30/51,30/51
0.35446691204892533,0.4355211938156177,-0.44000068448408536,-0.37590970007454444,-0.5030261717154404,-0.5235854468730538,0.2365675120744958,0.33421159904951586,-0.03306839943293993
2019/04/14,21:50:20
31/51,30/51
0.3329760571723138,0.4275071443708574,-0.42075126816938496,-0.33270397558006837,-0.48443864735584063,-0.49560794760729615,0.19512207011837626,0.28991247321246394,0.007467857500228409
2019/04/14,21:50:21
31/51,32/51
0.3725333697002145,0.45090239134651283,-0.46580661471466567,-0.36218917251559674,-0.49481639034708563,-0.5002208057791786,0.21011326961460183,0.3341682227976766,0.03548291289728018
2019/04/14,21:50:23
31/51,33/51
0.3926951669490907,0.4678938343206045,-0.49037346967063383,-0.3975530465580684,-0.516361025629208,-0.5348457624886488,0.2568505678433155,0.35934844194901017,0.056941091211303946
2019/04/14,21:50:24
31/51,34/51
0.3990374970233326,0.5028174596920063,-0.5034644321698205,-0.41397467114092995,-0.5358666004797923,-0.5643608270216356,0.27365155930353313,0.3661670552087371,0.08782698245658913
2019/04/14,21:50:26
31/51,35/51
0.4343150447548543,0.5263258561274128,-0.5289760466830794,-0.4368225243635605,-0.5722895609292625,-0.5734514490612235,0.2855772953435648,0.40840751610927506,0.11274904384532283
2019/04/14,21:50:28
32/51,35/51
0.44614493656784787,0.5426681030427997,-0.5697759623784792,-0.4605977665161444,-0.5839202610774309,-0.5761459621635612,0.29618177388668265,0.42273237885586623,0.14845754658233917
2019/04/14,21:50:29
33/51,35/51
0.48136309293583074,0.567358146505426,-0.6003824350776313,-0.48833949098434826,-0.6231293357305984,-0.5810859743284232,0.31870105517166264,0.4658500242038559,0.1560936575280127
2019/04/14,21:50:30
33/51,36/51
0.5242484206507,0.5687284655860351,-0.6164645152678268,-0.5047611170737161,-0.6361688373338944,-0.6169193605285026,0.35214225361646406,0.508317281936635,0.18547846424525125
2019/04/14,21:50:30
35/51,36/51
0.5283857016699063,0.6118637755794816,-0.6577648245535187,-0.5180730829377428,-0.6609339256849334,-0.6528979213021827,0.3788281474298453,0.5334094958602753,0.21687186077352125
2019/04/14,21:50:31
37/51,36/51
0.5092175685720322,0.6066354867768968,-0.6270737343720213,-0.49923267738847676,-0.6308310416442942,-0.635059138434431,0.3430084588558874,0.49537316738169374,0.18212852748500705
2019/04/14,21:50:32
38/51,36/51
0.4914965443986399,0.5777153942722737,-0.5956917406323929,-0.4648987115242192,-0.5871364219193461,-0.6130966877831547,0.30407303711487826,0.4547605874074886,0.1650818977918657
2019/04/14,21:50:32
38/51,38/51
0.5327790439915479,0.6112239382336819,-0.6210720869347488,-0.48651894125429385,-0.5980335549365889,-0.6212884332768599,0.3099685557005848,0.4791657066237227,0.20977513403526607
2019/04/14,21:50:34
38/51,39/51
0.5706346983331001,0.6578634807140424,-0.6628990873801496,-0.5356628927725678,-0.6243702273353033,-0.6321984043450457,0.32072978849447303,0.5077351038059782,0.2502045221899328
2019/04/14,21:50:36
39/51,39/51
0.6116195525009572,0.6751745450449124,-0.6904988126092739,-0.5696805344508385,-0.6718515087461392,-0.6654984538678945,0.33896094178585084,0.5424530061628766,0.2998788307277007
2019/04/14,21:50:36
39/51,41/51
0.6431012999759509,0.7054095097071483,-0.6981913368594691,-0.6148717947638608,-0.6888718457727069,-0.7076918556282249,0.3820465012785962,0.575544828422172,0.3304437216999296
2019/04/14,21:50:38
39/51,42/51
0.661878525755927,0.726481853065264,-0.7467949242561324,-0.6424685821794033,-0.7074654577445803,-0.7113215086878085,0.4313691563206321,0.6064220174601997,0.36099039103423786
2019/04/14,21:50:39
41/51,42/51
0.7072409165848762,0.7602583117578284,-0.776888436225425,-0.6501652579960598,-0.7195471121260929,-0.7504142492730834,0.4807901778724761,0.6500488266997366,0.3667698674149347
2019/04/14,21:50:40
41/51,43/51
0.7378092687975187,0.7639159149231846,-0.8040420992766839,-0.6861031904509743,-0.7670779714284347,-0.7862233162673673,0.4845223698995581,0.6703746125082956,0.41068240897934705
2019/04/14,21:50:43
43/51,43/51
0.7819598320777812,0.7683076065543781,-0.8245052398092166,-0.7010167096885539,-0.7975974001683667,-0.817127179724981,0.5035645046460928,0.7060524770042423,0.42883142255492374
2019/04/14,21:50:44
45/51,43/51
0.7593113029147986,0.7525374356752524,-0.7791192304066961,-0.6726840353260493,-0.7609663174456902,-0.7728149637564046,0.4586991396334068,0.6688852815876372,0.41593069490875023
2019/04/14,21:50:46
46/51,43/51
0.7586821656890786,0.7497774597622006,-0.75729136571936,-0.6557921911387522,-0.7235707103142112,-0.7366523965857614,0.4391784964360008,0.6646095361145407,0.40854275305482285
2019/04/14,21:50:47
47/51,43/51
0.6302256394804059,0.6819646060967602,-0.6749442939396326,-0.5731228323082419,-0.8374753119361759,-0.7782493663305077,0.6170979352581715,0.5462095073880084,-0.3963416712484059
2019/04/14,21:50:48
48/51,43/51
0.6189314125727363,0.6389704944551015,-0.6546513676777492,-0.5316708195056496,-0.7964688841083577,-0.7509242627411716,0.5928243900711806,0.5131154768746474,-0.35121988070617677
2019/04/14,21:50:50
49/51,43/51
0.601809455061157,0.5938336626731818,-0.6303859248156164,-0.48576827754136653,-0.7537474841625449,-0.7258740032225167,0.5755267704986703,0.49261620890026964,-0.34737456731883926
2019/04/14,21:50:51
50/51,43/51
0.7586821656890786,0.7497774597622006,-0.75729136571936,-0.6557921911387522,-0.7235707103142112,-0.7366523965857614,0.4391784964360008,0.6646095361145407,0.40854275305482285
2019/04/14,21:50:53
51/51,43/51
0.7434451618651575,0.7086568068520367,-0.7421493296095272,-0.6501756523381242,-0.6848814343383506,-0.7123657065166332,0.405915907836061,0.6241924974130928,0.3698829098206564
2019/04/14,21:54:24
0/51,1/51
0.7502899855323555,0.7575053251996536,-0.764340486009276,-0.654618321010641,-0.6950774945330975,-0.7199565566485474,0.44155597923240003,0.6558396054142781,0.41137707372307813
2019/04/14,21:54:26
1/51,1/51
0.7864458373958821,0.7634162241874934,-0.8015214667575443,-0.6772023080422898,-0.7311434473764555,-0.7326307081598974,0.4655052479688239,0.6690433932102129,0.45502156259511306
2019/04/14,21:54:27
2/51,1/51
0.7592142781514317,0.7212437509025662,-0.7581124027057898,-0.6641026409325265,-0.6952330586880917,-0.7271181468476093,0.458380884934799,0.6575306911427825,0.40954569548360703
2019/04/14,21:54:30
3/51,1/51
0.7110318906931108,0.70686164084012,-0.7154948417012925,-0.6172770805417428,-0.6505100002674317,-0.6927427523662553,0.41037368605354196,0.6342132010010213,0.3797168641409615
2019/04/14,21:54:35
3/51,2/51
0.7434451618651575,0.7086568068520367,-0.7421493296095272,-0.6501756523381242,-0.6848814343383506,-0.7123657065166332,0.405915907836061,0.6241924974130928,0.3698829098206564
2019/04/14,21:54:37
4/51,2/51
0.7190073691873453,0.671075470991812,-0.6935311995489981,-0.6145057852232901,-0.639520072396943,-0.7047407146255227,0.36235272131423574,0.5778714181062733,0.3502256422917664
2019/04/14,21:54:39
5/51,2/51
0.6753690670105311,0.6581172805724618,-0.6714040346908616,-0.5853570919968356,-0.6066193836211309,-0.6886113272026865,0.33336126685121287,0.5596090715545307,0.31802505787452007
2019/04/14,21:54:44
6/51,2/51
0.7110318906931108,0.70686164084012,-0.7154948417012925,-0.6172770805417428,-0.6505100002674317,-0.6927427523662553,0.41037368605354196,0.6342132010010213,0.3797168641409615
2019/04/14,21:54:49
6/51,3/51
0.6642430129177932,0.6958078192790206,-0.700357221526293,-0.5716767637379417,-0.6211487197649544,-0.666372718217664,0.3892344489016481,0.6274525612419255,0.3439809946913782
2019/04/14,21:54:51
6/51,4/51
0.638272919304818,0.663463097867207,-0.6725624946261409,-0.5521861077272386,-0.5801675659959707,-0.6417671482952894,0.382012022400388,0.6060088773048451,0.33255609139915165
2019/04/14,21:54:54
6/51,5/51
0.6753690670105311,0.6581172805724618,-0.6714040346908616,-0.5853570919968356,-0.6066193836211309,-0.6886113272026865,0.33336126685121287,0.5596090715545307,0.31802505787452007
2019/04/14,21:54:56
6/51,6/51
0.7018703771344712,0.6691847585488427,-0.6724032842013646,-0.606516654625846,-0.6557310992704604,-0.6961935539034886,0.3336052446005731,0.5980695858634718,0.34297465595596743
2019/04/14,21:54:59
6/51,7/51
0.735064900045718,0.7107145743060667,-0.6894386588463493,-0.6484193197775974,-0.6959375536639028,-0.7322100957545326,0.35744538046226765,0.6293900983144812,0.34387445620815393
2019/04/14,21:55:04
6/51,8/51
0.7542962419430739,0.7321259939937143,-0.71800827422576,-0.657932109737146,-0.7162068951767109,-0.7533959317701001,0.38799680452818086,0.6567384634406754,0.3807805930040752
2019/04/14,21:55:06
6/51,9/51
0.7560423375755438,0.7406029621188993,-0.7678125176564626,-0.6646883995837823,-0.7444134950706288,-0.7953668478531644,0.40690455020370137,0.6890775022889546,0.39880915735823164
2019/04/14,21:55:10
6/51,10/51
0.7615703430063808,0.7704187918186629,-0.7880487437628497,-0.6911108574692723,-0.7645550998826072,-0.8115824119666253,0.4247355525375388,0.6997023609266352,0.41319459909929834
2019/04/14,21:55:12
6/51,11/51
0.7624784929575179,0.7827064136044786,-0.79281342763908,-0.7356451308031043,-0.7977810128073124,-0.8359078101449928,0.4696171566111991,0.7313738640726156,0.45350749679304747
2019/04/14,21:55:14
6/51,12/51
0.7859460771287776,0.793975982269654,-0.8200409257557496,-0.748362471838867,-0.8164751735928123,-0.8689372138965384,0.5146353077686417,0.7330392779334082,0.5017126695034562
2019/04/14,21:55:16
9/51,12/51
0.8062058968414141,0.8397126764806335,-0.8237970255155177,-0.7831741796499806,-0.8508945621727917,-0.9007433890959217,0.5267255601525961,0.7776956557783268,0.535836308242474
2019/04/14,21:55:17
9/51,13/51
0.8181768381599994,0.8736993008518424,-0.8549855934316692,-0.7960963292632901,-0.8745165744389367,-0.929269608928386,0.5280543464153264,0.817319311425516,0.576534951824467
2019/04/14,21:55:21
11/51,13/51
0.8626239090575878,0.9111105204409373,-0.8848556819656115,-0.8141947025512712,-0.9020403814240997,-0.9728266946281617,0.5455979469090658,0.867285885269143,0.6119444118700571
2019/04/14,21:55:24
12/51,13/51
0.9041053342745755,0.925974605572044,-0.9182643615896433,-0.8321565497479158,-0.9299770165478466,-0.9775604311584297,0.5870197374252446,0.8702817783572078,0.657006155084713
2019/04/14,21:55:25
13/51,13/51
0.924744981380638,0.9501307231042294,-0.9260916667326158,-0.8771644472362234,-0.9402506001905795,-0.9789153877496296,0.5874997701533802,0.8888251987957769,0.6973284107715141
2019/04/14,21:55:28
14/51,13/51
0.8820492700237541,0.9492215932358096,-0.9182572493491328,-0.8463829717175785,-0.9352019479799497,-0.9660507121870024,0.568471084271959,0.8663364954745686,0.6481586492655057
2019/04/14,21:55:31
16/51,13/51
0.8412176211163414,0.9241767032675898,-0.870668888873726,-0.842403149658804,-0.9223730402755658,-0.9230976404178768,0.5452397733426423,0.8174077286533938,0.5995613521315674
2019/04/14,21:55:32
16/51,14/51
0.638272919304818,0.663463097867207,-0.6725624946261409,-0.5521861077272386,-0.5801675659959707,-0.6417671482952894,0.382012022400388,0.6060088773048451,0.33255609139915165
2019/04/14,21:55:36
16/51,15/51
0.6362731508447751,0.6264052709057607,-0.6471495322772465,-0.5306850564804491,-0.5660849320761846,-0.6348004827191294,0.36871798371764924,0.5776977680367229,0.2912097468258149
2019/04/14,21:55:39
17/51,15/51
0.6291232867064057,0.6025971954007299,-0.6119418913745596,-0.49246035270598193,-0.5531272595621749,-0.617769102122244,0.3551973536711263,0.5645262900906338,0.27766959788847645
2019/04/14,21:55:41
17/51,16/51
0.8412176211163414,0.9241767032675898,-0.870668888873726,-0.842403149658804,-0.9223730402755658,-0.9230976404178768,0.5452397733426423,0.8174077286533938,0.5995613521315674
2019/04/14,21:55:45
17/51,17/51
0.8566015251583552,0.9343508815155565,-0.8754478440652727,-0.8726317588947939,-0.9263916476875087,-0.9674586839975801,0.5665241288077821,0.8656773720624389,0.6027703632954455
2019/04/14,21:55:48
17/51,18/51
0.8747870718304155,0.9397274982261675,-0.8988251161446614,-0.8800894099668692,-0.9704634536387795,-1.0061111700460414,0.5691488292572731,0.9033589386214737,0.6276445239074389
2019/04/14,21:55:49
17/51,20/51
0.9195515067349409,0.9534455873025325,-0.9234211804043042,-0.9248073603564206,-1.0082594336546735,-1.020031732182216,0.6141850231377206,0.9389386415724397,0.664009913252481
2019/04/14,21:55:52
18/51,20/51
0.9625948953610777,0.9863124466429019,-0.9578020226877527,-0.9688515004615079,-1.0499261990594602,-1.0340706902442824,0.6438272942265701,0.9683188673379866,0.7024626066242334
2019/04/14,21:55:55
18/51,21/51
0.963621893593374,0.992567827298737,-0.9936215280387137,-0.9897690055836328,-1.0968999108986985,-1.0507338901115881,0.6617948150904546,1.0177449472587934,0.7169212975620406
2019/04/14,21:55:59
18/51,22/51
0.981353939437694,1.0393225122480239,-1.041597712866763,-0.9961936009627398,-1.1363799179469862,-1.0976221819678107,0.6673923107029393,1.0447518535868283,0.7520029726929046
2019/04/14,21:56:06
19/51,22/51
1.0160919569135718,1.0854034534525243,-1.06193819077343,-1.0280399125282256,-1.174228608066846,-1.1438852080711837,0.6682445953637903,1.0530472850644217,0.8011171432230901
2019/04/14,21:56:08
19/51,23/51
1.0339298123933744,1.1147673709018795,-1.0708914457865073,-1.0737075463001193,-1.1956454891635737,-1.1628626223094254,0.6774011547755665,1.0699060065580923,0.8105721984121552
2019/04/14,21:56:11
20/51,23/51
1.0697297867113933,1.1267844714515924,-1.083963625736634,-1.0890545741447633,-1.2453556629568499,-1.1637063168557522,0.6784938047412395,1.084281717917171,0.8559750564281282
2019/04/14,21:56:14
20/51,24/51
1.07582379197606,1.1700970146278253,-1.0963286717299603,-1.104813374617111,-1.2845546510227503,-1.1894800029524675,0.7277543061491649,1.120216041400718,0.8650722372852769
2019/04/14,21:56:16
20/51,25/51
1.0932451450991494,1.1875033579229222,-1.1337222110613048,-1.1392951584521256,-1.3044361054545504,-1.216912764616751,0.7702681498402849,1.1211289772262896,0.912937231208279
2019/04/14,21:56:20
21/51,25/51
1.1279357204895837,1.2151135631522392,-1.148869457926583,-1.1702004056750612,-1.330039013097968,-1.2503550949404687,0.7938542446749791,1.1228228604060089,0.9491911316769529
2019/04/14,21:56:25
22/51,25/51
1.1778036408698482,1.2296444405902132,-1.1769169897352878,-1.2045550884613705,-1.3585894764970157,-1.294994666639614,0.8300420544241967,1.1334048383804858,0.9863964846721133
2019/04/14,21:56:26
22/51,27/51
1.2231848247550885,1.2485688363070497,-1.1906753530497012,-1.2537293793727504,-1.3680187799929264,-1.3050931640137033,0.8498267082258883,1.1698065562576185,1.0027259059795954
2019/04/14,21:56:28
22/51,28/51
1.2720314048932178,1.2640024958647804,-1.1919405620527155,-1.2759092010489943,-1.411904930457482,-1.3440481037462353,0.8634865573009411,1.187499709883349,1.0162464188274645
2019/04/14,21:56:30
24/51,28/51
1.3203429603106247,1.2697498529210878,-1.2186142086094558,-1.282325648701035,-1.4294930858658477,-1.348715635324496,0.8933949916061326,1.2090032211104895,1.0616291061702023
2019/04/14,21:56:31
24/51,29/51
1.34790527701077,1.3024457521987838,-1.2681685937722948,-1.2896854586197903,-1.4540513909048545,-1.3879249401184501,0.9325171362124478,1.2432862934957396,1.1101781205972006
2019/04/14,21:56:36
24/51,30/51
1.3974661866532854,1.328304355012654,-1.2693777769790118,-1.3054128814327994,-1.4731108446210261,-1.4188215310502261,0.947505596837028,1.286390364241227,1.122723744262413
2019/04/14,21:56:38
25/51,30/51
1.41040469745908,1.35952640951166,-1.2731650285513667,-1.3501636971272686,-1.5175461803460895,-1.4671514138849424,0.9540547723258401,1.3163795010481711,1.1428559236289577
2019/04/14,21:56:42
26/51,30/51
1.4292419412762276,1.3758845198158778,-1.3072150746009175,-1.355555070671159,-1.5309841918416427,-1.4918626795717644,0.9794310539123707,1.3556302404150358,1.1620539497311788
2019/04/14,21:56:43
27/51,30/51
1.4637091613129098,1.4018911102472238,-1.324335420831452,-1.3896135179626656,-1.5461389979273752,-1.502280325338365,1.026273358503949,1.3577441590166281,1.1854113508132675
2019/04/14,21:56:45
27/51,31/51
1.4726978566348088,1.4128195285243743,-1.3552283917096308,-1.4155016549025188,-1.5462415485728527,-1.529654201501043,1.0628835191946489,1.3682739098682581,1.216976944593169
2019/04/14,21:56:47
27/51,33/51
1.5145156108826434,1.4428860528311216,-1.359277276731564,-1.4333821649309817,-1.5789983293202805,-1.57192056224774,1.0679433291217242,1.3890243484351954,1.2411224955382298
2019/04/14,21:56:48
27/51,34/51
1.5393223516993033,1.489599124112611,-1.3798800781502987,-1.4807499280319247,-1.5890657981746485,-1.5977331013369223,1.0738482460725831,1.431443555480084,1.2641320669662173
2019/04/14,21:56:49
29/51,34/51
1.584860276127597,1.5369795470588632,-1.407383608418546,-1.5042063532639032,-1.605626494462226,-1.6139840013132074,1.0777698402480298,1.4518194974666223,1.2836212776983469
2019/04/14,21:56:51
30/51,34/51
1.6025177074911352,1.5472279608725117,-1.4154322312126546,-1.5300888804039101,-1.6467375158584177,-1.6280064902243763,1.086967012363788,1.4760897966515456,1.3302422653542996
2019/04/14,21:56:52
31/51,34/51
1.650377065195402,1.5791018191846944,-1.4495383637758128,-1.5601729976116878,-1.670087148816461,-1.6712453305675599,1.1336340874756388,1.5015276254124772,1.3587005000963344
2019/04/14,21:56:53
31/51,35/51
1.650546229864415,1.5926339535400418,-1.4685988101917486,-1.5775036576530286,-1.6735584780133526,-1.7205746263990653,1.1363723200984686,1.534438502308657,1.397600175303701
2019/04/14,21:56:54
31/51,36/51
1.6506123162278792,1.6120814510583856,-1.507561082194098,-1.6171761564090243,-1.6748647203425018,-1.7473658383705037,1.1555591398639842,1.563140409955206,1.4444674744965047
2019/04/14,21:56:56
32/51,36/51
1.6827036989504898,1.6461502828124557,-1.5261317055436008,-1.650872455337065,-1.7100765657861434,-1.797339429537452,1.1757037918018782,1.6108877705263065,1.4732808477661519
2019/04/14,21:56:57
33/51,36/51
1.6995807187406076,1.6795845617145604,-1.5742706318846014,-1.6528118330484332,-1.7236868459573471,-1.841577458650486,1.186511547367206,1.6284769186038437,1.481892574351697
2019/04/14,21:56:58
34/51,36/51
1.7467841999743055,1.710342436686539,-1.5974142714615138,-1.6771959656674091,-1.7647516981625313,-1.890599149441817,1.188141328170146,1.6596434219510636,1.4950586391945386
2019/04/14,21:56:59
34/51,37/51
1.7813854038998094,1.7422239046313284,-1.63566627544239,-1.7064479793898346,-1.8136104621650382,-1.92907541064851,1.2339294161388492,1.7045378153225412,1.5094211737975238
2019/04/14,21:57:02
35/51,37/51
1.7934356313960589,1.770187558289055,-1.6572313574489173,-1.7191501230066881,-1.8278708949635727,-1.9426903826555555,1.2568098289950849,1.7505758164910408,1.5344764017749049
2019/04/14,21:57:04
36/51,37/51
1.8274591965636693,1.7954893657798632,-1.6732778102576746,-1.723848505781592,-1.852230540191919,-1.970638002933969,1.264107395138096,1.7754377557348806,1.549523517728895
2019/04/14,21:57:07
37/51,37/51
1.8323059973030948,1.844328105711207,-1.719251960829754,-1.7313500631193786,-1.8564169292970234,-1.9809350136806632,1.2802888208573844,1.781034083128876,1.5960524215721676
2019/04/14,21:57:08
37/51,38/51
1.866454732278548,1.873635853132103,-1.7510929811155702,-1.7601061046459412,-1.8865709565405195,-2.0056237169665003,1.3095781422938098,1.8043016313573597,1.6189768065687036
2019/04/14,21:57:09
37/51,39/51
1.8767841201344215,1.904843128132162,-1.7973079448319491,-1.7772850029153837,-1.907108219759825,-2.005980119343589,1.347194494253795,1.836750364424215,1.6632874008026945
2019/04/14,21:57:11
37/51,40/51
1.8904481322129245,1.9548114707407294,-1.7975805786570123,-1.783707756218818,-1.9241700110576,-2.026599237275591,1.381716231082352,1.8478135168545573,1.6828899443057126
2019/04/14,21:57:12
39/51,40/51
1.9328379346214875,1.9979755024782881,-1.8155043813251772,-1.8263900906437045,-1.9383325963514437,-2.0456089646530047,1.4048721475287358,1.8826898832326424,1.6994903116740534
2019/04/14,21:57:13
40/51,40/51
1.9396395711588046,2.0088794829195544,-1.8580267981069085,-1.864072603079954,-1.9767965678693098,-2.091320024632245,1.4506888516486571,1.918963151225782,1.7093285951689694
2019/04/14,21:57:15
40/51,41/51
1.9415147304771014,2.0163649466400186,-1.8684511013772622,-1.8770692994005715,-1.995135331335737,-2.1305329084886933,1.4586530464512546,1.9506912670852306,1.716655997511392
2019/04/14,21:57:16
40/51,43/51
1.9746133188609771,2.0394627037329855,-1.8905521230408688,-1.9010443691711867,-2.014168604976337,-2.1374078260267146,1.5007748292318612,1.9959740305482208,1.764890388624792
2019/04/14,21:57:17
40/51,44/51
2.0165503801120517,2.0401037676996077,-1.9118772225415601,-1.9391770622197106,-2.0293052470418544,-2.1536360840147757,1.5100591178000935,2.0021421574786755,1.8141102389205592
2019/04/14,21:57:19
40/51,45/51
2.0380754127126233,2.0823046032587675,-1.9321214566855962,-1.9851960536044044,-2.044405662077083,-2.1864158861586507,1.552487542152324,2.047074386341749,1.8345533369677447
2019/04/14,21:57:48
41/51,45/51
2.061976804447801,2.1218728856875084,-1.9683835082698542,-2.0236351599749676,-2.05389222977844,-2.222622218656778,1.5963100754710744,2.06370437469121,1.8595587182933482
2019/04/14,21:57:50
41/51,46/51
2.0959264970467704,2.150857680758116,-1.9911174972235908,-2.0587461152503206,-2.0607569924573252,-2.2562721601654894,1.6054016867118437,2.074342664313999,1.8636397752484675
2019/04/14,21:57:52
42/51,46/51
2.145348516309561,2.1914796767758475,-2.02503020958043,-2.1061169731929676,-2.075710564004652,-2.2719321733055873,1.6216365406148017,2.077700854887929,1.8764961253724628
2019/04/14,21:57:53
42/51,47/51
2.177123061848061,2.2157486792417433,-2.0602350329486465,-2.118977625758272,-2.0762312745369904,-2.293832512186642,1.6610307474387613,2.1080294226662084,1.8940030233911067
2019/04/14,21:57:56
42/51,48/51
2.2000168257199006,2.217724239452085,-2.0687586059387,-2.123008615771029,-2.0952110523504905,-2.3049301263505906,1.7071291971790745,2.11375498292239,1.9280085034395613
2019/04/14,21:57:57
43/51,48/51
2.2424208714938025,2.250366016935149,-2.089875591905612,-2.171066892154826,-2.1011892291255663,-2.327087899726275,1.7161024988911722,2.149741918777899,1.976202379736167
2019/04/14,21:58:00
45/51,48/51
2.2576213325186107,2.2939568424437575,-2.122256855033852,-2.1851284469788563,-2.1495927788139224,-2.3618050852486077,1.7545947164994629,2.175447717032538,2.01935443954001
2019/04/14,21:58:02
45/51,49/51
2.2928895310832584,2.3349763447361305,-2.1573951329455427,-2.1956751559849237,-2.1665332431628577,-2.3666382605825733,1.762196767502199,2.2144280371751854,2.021106186767115
2019/04/14,21:58:04
45/51,50/51
2.299074078548203,2.3586423083778616,-2.158786558034622,-2.2093151509966518,-2.1940985072201884,-2.3739745659103444,1.77200250132585,2.237282427329414,2.0526315813752434
2019/04/14,21:58:05
46/51,50/51
2.348405050854575,2.400272461326583,-2.159277885933898,-2.228571164938457,-2.216372110143221,-2.4172785941263895,1.782390711245973,2.278347682078785,2.0909432273510427
2019/04/14,21:58:09
46/51,51/51
2.352430195729975,2.4374703535657396,-2.2028860636586107,-2.2351290436878206,-2.2199113260654024,-2.4279858437521527,1.8152166359933193,2.3226962163399554,2.1123036399581787
