2019/04/14,17:50:41
0/3,3/3
0.0,0.0,0.0,0.0,0.0,0.0,0.0,0.0,0.0
2019/04/20,12:25:29
1/51,0/51
-0.04867969765375699,-0.016863001558072768,-0.046413076349129535,-0.006424255770153315,-0.019285966179503983,-0.015402545247495642,-0.016500638676324682,-0.014638223924008032,-0.016669319177912267
2019/04/20,12:25:31
2/51,0/51
-0.04467320202232321,0.017536693459489206,0.0022089320919596173,-0.005413404483233819,-0.003558675333507594,0.007194141273800254,0.029644174553271778,-0.01166473546643247,-0.007633978376027499
2019/04/20,12:25:34
2/51,1/51
0.0,0.0,0.0,0.0,0.0,0.0,0.0,0.0,0.0
2019/04/20,12:25:38
3/51,1/51
-0.011503099684318086,-0.011237809144936323,-0.028573453781569155,-0.033767382665052345,-0.033820171977926076,-0.04161736076547706,-0.01705422327159543,-0.007780477174147871,-0.020596202450751357
2019/04/20,12:25:41
3/51,2/51
0.01986915507994466,0.03475465727133317,0.018077636132952837,-0.03224316198186186,-0.00715530332098889,-0.03849309689270934,-0.006593146525455616,0.003933671890539926,0.015113492391730068
2019/04/20,12:25:43
3/51,3/51
0.05925234992759639,0.050384649763602574,0.029697394970522838,-0.04753342093694045,-0.017236744667743907,-0.07951686275626063,-0.0442012745849091,0.02385530456207286,0.04524912738047403
2019/04/20,12:58:44
1/51,0/51
0.05862194937184883,0.017858230436896966,0.012856460039503751,-0.04154462526962173,-0.005898767809515419,-0.04628528547275591,-0.022210759301734353,0.005677619557696467,0.03474621990202153
2019/04/20,12:58:46
1/51,1/51
0.09793034981640772,0.03479324372419511,0.03188915080945899,-0.05620866914023792,-0.011442697796401679,-0.07313817077414914,-0.0543420287011626,0.010679657732782427,0.07346079991976506
2019/04/20,15:45:05
2/51,0/51
0.0740782383932288,0.0030757652443260328,0.010555098176662489,-0.03178017757430894,-0.004716920003045482,-0.04557016227219517,-0.04483309695447671,-0.03884967780076768,0.032498891099157184
2019/04/20,15:46:36
0/51,2/51
0.086845701138061,0.02019686150067958,0.012176609290507266,-0.04434365352426457,-0.05046158812591414,-0.08300781970615133,-0.054459537752922775,-0.08385900006007518,0.05505925667617412
2019/04/20,15:47:11
2/51,0/51
0.0731323028579836,-0.014767082834782754,0.009129320326567795,0.002647946473886803,-0.029294240256521862,-0.04342832424330315,-0.021648528839183424,-0.07203159817537105,0.03678944302430694
2019/04/20,15:47:14
6/51,0/51
0.05565288100613888,0.032481532712366715,-0.039699144656614255,0.0024225451291546908,-0.01954030401507976,-0.032685249570528804,-0.004972769038025137,-0.06972474784968213,0.02716164351412673
2019/04/20,15:47:18
8/51,0/51
0.086845701138061,0.02019686150067958,0.012176609290507266,-0.04434365352426457,-0.05046158812591414,-0.08300781970615133,-0.054459537752922775,-0.08385900006007518,0.05505925667617412
2019/04/20,15:47:21
10/51,0/51
0.0573613243658606,-0.02807221777616716,0.00788658040006509,-0.0386940819718765,-0.028929776697923314,-0.06315960688971455,-0.022698001178446593,-0.06256177514642705,0.05392115026249322
2019/04/20,15:48:44
4/51,0/51
0.011731444232287155,-0.02766624764432682,-0.041208967769223656,-0.0320275144221884,0.010193758580353242,-0.030359761589752246,0.011430058101302057,-0.021416061722064172,0.005927270697422243
2019/04/20,15:48:47
6/51,0/51
-0.018892801597523778,-0.02019223615730188,-0.0012274391201958224,0.01762437440830908,-0.019202025735626273,0.013236974390192835,-7.426853835826135E-5,0.009164806610045248,-0.0028074557724076642
2019/04/20,15:48:50
8/51,0/51
0.0573613243658606,-0.02807221777616716,0.00788658040006509,-0.0386940819718765,-0.028929776697923314,-0.06315960688971455,-0.022698001178446593,-0.06256177514642705,0.05392115026249322
2019/04/20,15:48:51
12/51,0/51
0.04350659054240712,0.0012404293948675392,-0.009746575384698673,-0.016604621937586463,-0.027425228615094374,-0.03968974575735833,-0.020638493397213672,-0.0360564867989248,0.03162971432960833
2019/04/20,15:48:55
14/51,0/51
0.011807682103925778,-0.002520431685275807,0.01082111230359806,0.030942953648643707,-0.023788986769387507,-0.03822118586372944,-0.01415712767136771,0.005116372628962827,-0.006861753326144929
2019/04/20,15:48:58
14/51,2/51
-0.018892801597523778,-0.02019223615730188,-0.0012274391201958224,0.01762437440830908,-0.019202025735626273,0.013236974390192835,-7.426853835826135E-5,0.009164806610045248,-0.0028074557724076642
2019/04/20,15:49:03
16/51,2/51
-0.0068430213670264296,0.027778714839015287,0.014033045601566341,-0.027191580010806765,0.020113685506691813,0.007093441006317813,0.008859200722711144,-0.0013825141069847922,0.024658328688138227
2019/04/20,15:49:07
18/51,2/51
0.028873479667373532,-0.01179241408295317,0.005432979454628634,0.009217795894631738,-0.0010846119983020687,-0.023067749402309864,-0.02467208248099273,0.0015349881079761178,-2.575330069256483E-4
2019/04/20,15:49:11
18/51,4/51
0.011807682103925778,-0.002520431685275807,0.01082111230359806,0.030942953648643707,-0.023788986769387507,-0.03822118586372944,-0.01415712767136771,0.005116372628962827,-0.006861753326144929
2019/04/20,15:49:15
22/51,4/51
-0.006628970300262885,0.03520562091144088,0.010655226820539213,0.02451947396269556,0.016466444793842464,-0.02576010638217316,0.022337715493470932,-0.03759366766393732,0.03976935909460568
2019/04/20,15:49:20
22/51,6/51
0.03723725312608206,0.031346714826333395,-0.026641244399102097,-0.010140816074149333,-0.02589246146034652,-0.008190957801068998,-0.004244568415815511,-0.03173338113488601,0.02265483627906671
2019/04/20,15:49:28
24/51,6/51
0.028873479667373532,-0.01179241408295317,0.005432979454628634,0.009217795894631738,-0.0010846119983020687,-0.023067749402309864,-0.02467208248099273,0.0015349881079761178,-2.575330069256483E-4
2019/04/20,15:49:37
26/51,6/51
-0.0017493381635110203,0.0040285626626169885,-0.0033907465527253603,-0.03611090466570039,0.004538272687787789,0.00744238520469985,0.007197285997066226,-0.003701762773307047,0.010473820790710093
2019/04/20,15:49:44
28/51,6/51
0.0280141650024628,-0.018695454621509344,0.011447715385504981,0.00171327077832905,-0.0342504373181042,-0.030119154047246563,-0.02118426569849963,0.03079136184724804,-0.03482358506509542
2019/04/20,15:49:53
28/51,8/51
0.03723725312608206,0.031346714826333395,-0.026641244399102097,-0.010140816074149333,-0.02589246146034652,-0.008190957801068998,-0.004244568415815511,-0.03173338113488601,0.02265483627906671
2019/04/20,15:50:02
28/51,10/51
0.01699859174944851,0.004798314701912037,0.021032595202893644,0.00569631701200872,-0.010021956007322676,0.015172057445029398,0.024507887857215093,-0.016384013803915486,0.004884325067922999
2019/04/20,15:50:05
30/51,10/51
-0.008065901245896817,-0.0034290760330849997,-0.012929927619221373,-0.029655259994062474,0.030147461730137513,0.010518592078139516,-0.02347603180475878,0.0016312054727418215,0.0023683586977067995
2019/04/20,15:50:10
30/51,12/51
0.0280141650024628,-0.018695454621509344,0.011447715385504981,0.00171327077832905,-0.0342504373181042,-0.030119154047246563,-0.02118426569849963,0.03079136184724804,-0.03482358506509542
2019/04/20,15:50:16
32/51,12/51
0.01801729696347431,0.001922625935976259,-0.022656485608423337,-0.02342427024710407,0.002779064159008998,0.004104356403714385,0.017934266797893502,0.021830771660363634,0.0011465281592546242
2019/04/20,15:50:21
32/51,14/51
-0.01040801482056156,-0.008694168767847704,0.014566364793818842,0.0080003374175582,-0.02737680236353539,-0.0073526491186917484,0.008212265445936342,0.0039881735333695545,-0.038611379790721934
2019/04/20,15:50:28
34/51,14/51
-0.008065901245896817,-0.0034290760330849997,-0.012929927619221373,-0.029655259994062474,0.030147461730137513,0.010518592078139516,-0.02347603180475878,0.0016312054727418215,0.0023683586977067995
2019/04/20,15:50:38
34/51,18/51
0.035731168214237934,0.02399855471075285,0.030380594171304693,0.018282725804758586,0.0085680525957661,-0.019947148513336052,0.015566251209647445,-0.04244079955077221,-0.036002089147601016
2019/04/20,15:50:45
36/51,18/51
-0.010943627988018678,7.455857996167409E-4,0.02922772074567176,-0.027794707285172124,-0.002099574902920051,0.0030001505037648563,-0.002519542519193639,-0.028718049961291552,-0.008578532350173917
2019/04/20,15:50:48
36/51,20/51
-0.01040801482056156,-0.008694168767847704,0.014566364793818842,0.0080003374175582,-0.02737680236353539,-0.0073526491186917484,0.008212265445936342,0.0039881735333695545,-0.038611379790721934
2019/04/20,15:50:52
36/51,22/51
-0.0014604766697527052,0.03524829039030811,-0.01053094285489986,-0.02339722938838408,0.011454608265663666,0.03102689882304354,-0.03579593140143498,-0.02598586655055604,-0.014503941135195972
2019/04/20,15:50:57
36/51,24/51
0.008250671946948288,-0.005774475020995179,0.009073750134637161,-0.010230919048115268,-0.010382694050247675,-0.017050776476825007,-0.03171523548090079,-0.010746089935413365,-0.014194481131889767
2019/04/20,15:51:01
36/51,26/51
-0.010943627988018678,7.455857996167409E-4,0.02922772074567176,-0.027794707285172124,-0.002099574902920051,0.0030001505037648563,-0.002519542519193639,-0.028718049961291552,-0.008578532350173917
2019/04/20,15:51:04
36/51,28/51
0.02251297072572441,-0.04431759087859173,-0.006745186443878663,-0.015163103488312575,2.0554624698035113E-4,-0.02812347766018046,0.02064573996406415,0.008025983923642736,0.030727418164314332
2019/04/20,15:51:09
38/51,28/51
-0.014423441671210555,-0.039636912829185265,0.009038132078253922,0.017211447867602064,-0.034152260463313044,-0.012822458654166221,0.0054569474308122454,-0.008128280944428658,-0.00824441794217251
2019/04/20,15:51:14
40/51,28/51
0.008250671946948288,-0.005774475020995179,0.009073750134637161,-0.010230919048115268,-0.010382694050247675,-0.017050776476825007,-0.03171523548090079,-0.010746089935413365,-0.014194481131889767
2019/04/20,15:51:17
40/51,30/51
0.006075790309955434,0.02317473106447926,-0.02260013272073466,0.03802577982575424,-0.00829310397697412,0.018968286075397342,-0.006566519376294225,-0.001032490544792956,0.004646920433858592
2019/04/20,15:51:18
40/51,32/51
-0.03968283867706146,-0.016529899805249194,-0.0024883767032949575,0.020073632268735278,0.03860324708948103,-0.016670294328225435,-0.006329187645130921,0.04893226564525223,-0.005278920690222129
2019/04/20,15:51:21
42/51,32/51
-0.014423441671210555,-0.039636912829185265,0.009038132078253922,0.017211447867602064,-0.034152260463313044,-0.012822458654166221,0.0054569474308122454,-0.008128280944428658,-0.00824441794217251
2019/04/20,15:51:28
44/51,32/51
0.019846347326611065,-0.023380066952882726,0.007066459398197791,0.014026565421519055,-0.023493430812630427,0.03439172260018769,-0.02917685215974277,0.004432712216612771,0.035611302098643646
2019/04/20,15:51:33
44/51,34/51
0.006681853087535456,-0.010757018106743002,-0.03479448967887998,-0.014375800472972733,0.013557137394605578,0.01807998323529949,-0.014593469175260757,-0.008656465247637147,0.027833904236729233
2019/04/20,15:51:37
44/51,36/51
-0.03968283867706146,-0.016529899805249194,-0.0024883767032949575,0.020073632268735278,0.03860324708948103,-0.016670294328225435,-0.006329187645130921,0.04893226564525223,-0.005278920690222129
2019/04/20,15:51:42
44/51,42/51
-0.006998201544974554,0.02694238724074767,0.00972289245548469,-0.012942037171737843,0.019884338257722987,0.005319723921772771,0.003876058457115087,0.04369725755499702,0.030258732663861414
2019/04/20,15:51:53
44/51,44/51
-0.035206074122587507,0.05249881856016289,0.031830551632507934,-0.03228774968194957,0.031618592200055334,0.03412452961023524,0.03714816542521246,0.08897928536793301,0.06188165271112498
2019/04/20,15:51:57
48/51,44/51
0.001947960767024956,0.018883477188550497,0.008338158214241782,-0.0192082072049545,0.008959376736130068,0.01962224289682446,0.01261204805657512,0.041621473328343955,0.04532513891437526
2019/04/20,15:52:08
48/51,46/51
-0.007589977310028726,0.01635081531343524,-0.0383849154229881,0.01475134539381531,-0.019016363702304726,2.945879694751831E-4,-0.03372965575694552,0.0017727603008641443,-0.0033805823550265846
2019/04/20,15:52:14
50/51,46/51
0.006681853087535456,-0.010757018106743002,-0.03479448967887998,-0.014375800472972733,0.013557137394605578,0.01807998323529949,-0.014593469175260757,-0.008656465247637147,0.027833904236729233
2019/04/20,15:52:17
50/51,48/51
-0.005816174243670553,0.017928935002647868,0.015128268320546145,0.0022114082132575087,-0.03504308379121872,-0.018179037167126322,0.0275514559452976,0.006139012808412185,0.027012963787219596
2019/04/20,15:52:19
50/51,50/51
-0.04339027071948155,0.06791133650766207,0.026879792329208833,0.00344229037317531,-0.051544283822714164,-0.044813499672584384,0.0556470939865188,0.044706321099564385,0.07492550190855493
2019/04/20,16:06:58
2/51,0/51
-0.03227483952714362,0.01958365657892936,-0.011716587091136689,-0.0038998395820685327,-0.038903892603995405,-0.015895497096757697,0.02293288783299969,-0.002694634807864804,0.026994759526297568
2019/04/20,16:07:01
2/51,2/51
-0.04337509986790357,0.03831473311894452,-0.034766842408877896,-0.05076283021207238,-0.06996355809161836,-0.05811716387211499,0.04429735967185482,-0.04233730344272234,0.06757644270229679
2019/04/20,16:07:03
4/51,2/51
-0.012544305368246241,0.016266126528630125,-0.02746919529989365,-0.012175345424015882,-0.03878834206442851,-0.05135623129194285,-0.0038214846577627887,-0.0013099399091616379,0.025205527299190594
2019/04/20,16:07:05
6/51,2/51
-0.011158782141363673,0.014656289945394356,0.011410426067931963,-0.0062806592890745135,-0.02806241992017043,-0.03650902734935412,0.031147618241164687,0.012208520405001547,-0.005746766812442145
2019/04/20,16:07:06
10/51,2/51
-0.04339027071948155,0.06791133650766207,0.026879792329208833,0.00344229037317531,-0.051544283822714164,-0.044813499672584384,0.0556470939865188,0.044706321099564385,0.07492550190855493
2019/04/20,16:07:08
10/51,4/51
-0.017688257364826862,0.021256680065902978,1.5258063170388303E-4,-0.03659631167842678,-0.04110447133869227,-0.03856498002192911,0.03254524010965771,0.024482095793234404,0.03394526268371169
2019/04/20,16:07:14
10/51,6/51
0.03011119414282322,0.01709972867449258,-0.02373705167055713,-0.0054457483226001795,-0.01120595737898402,0.0015283993090435405,0.0040851751524123014,-0.001022196081123656,0.005667713757792542
2019/04/20,16:07:18
10/51,10/51
0.0558258699886848,0.02670095643089585,-0.06897330554698916,-0.026112521547490126,-0.02161504542119691,0.0022946233195734215,0.04176248599492789,-0.023097512625194175,0.04535140535978889
2019/04/20,16:07:20
12/51,10/51
0.03664568840166339,8.128431102575988E-4,-0.020817494898995773,0.02283869206211848,-0.014895157762137005,-0.003575350997538038,-0.004981347522818418,0.001963331022026754,0.020878753355499255
2019/04/20,16:07:22
14/51,10/51
-0.009187999852015363,-0.006327651231745208,0.010904835947368414,0.013941887655645451,-0.002385272786966628,-0.0016404102680227935,0.03671399856288627,-0.029353933613815178,0.0034724689582329507
2019/04/20,16:07:24
16/51,10/51
-0.011158782141363673,0.014656289945394356,0.011410426067931963,-0.0062806592890745135,-0.02806241992017043,-0.03650902734935412,0.031147618241164687,0.012208520405001547,-0.005746766812442145
2019/04/20,16:07:27
16/51,12/51
0.01899614168139338,-0.023502386022467424,-0.011131407952790884,0.03679857647872136,-0.02598138139585391,-0.021396856739476475,-0.008342039469207904,-0.033315140390829986,0.027302756362948186
2019/04/20,16:07:30
16/51,14/51
-0.027412528839557727,0.006216065063927183,-0.0035618089246296945,0.02788329640052973,0.0031645494302260484,-0.010114727417299765,-1.4939463458483494E-4,0.0036420568469794426,-0.012669530951565085
2019/04/20,16:07:34
18/51,14/51
-0.009187999852015363,-0.006327651231745208,0.010904835947368414,0.013941887655645451,-0.002385272786966628,-0.0016404102680227935,0.03671399856288627,-0.029353933613815178,0.0034724689582329507
2019/04/20,16:07:36
20/51,14/51
0.003658376907603414,0.0343780510352167,-0.013225780929150045,-0.017368409792964976,0.042292322415564104,0.0015132467823982447,0.031116860947050608,0.0014598151679648674,-0.0388121475211222
2019/04/20,16:07:41
22/51,14/51
-0.017184629350059197,-0.006169950443602759,0.017344206491711485,0.00458379675875422,0.008436640145129765,-0.01028867477489868,0.014429178176220886,-0.012402415589703238,-0.014735892186472588
2019/04/20,16:07:44
24/51,14/51
-0.027412528839557727,0.006216065063927183,-0.0035618089246296945,0.02788329640052973,0.0031645494302260484,-0.010114727417299765,-1.4939463458483494E-4,0.0036420568469794426,-0.012669530951565085
2019/04/20,16:07:47
24/51,20/51
0.021321037300198326,-0.04312648323786408,0.023967397675775732,0.010739268219670674,-0.023262869345818216,0.023446632501585924,0.04681160772036424,-0.044887927484345745,0.020297388814984507
2019/04/20,16:07:50
28/51,20/51
-0.021876814853172902,-0.011951159145586546,-0.02296522483420944,-0.01597030683168073,-0.007227900506353385,-0.00246416446827245,-0.0023060578038128637,-0.007092004896303676,-0.025213971759877305
2019/04/20,16:08:00
30/51,20/51
-0.017184629350059197,-0.006169950443602759,0.017344206491711485,0.00458379675875422,0.008436640145129765,-0.01028867477489868,0.014429178176220886,-0.012402415589703238,-0.014735892186472588
2019/04/20,16:08:03
32/51,20/51
0.015510885494913515,0.01917494654177288,-0.0037495637928066476,-5.292970931940772E-4,-0.03330548844446371,-0.006730793528305421,-0.0077278390520928684,0.0012579694870603723,0.018892425157496
2019/04/20,16:08:07
36/51,20/51
-0.006261995617580722,-0.014608742768053355,0.002780932590115288,0.01755591572768222,-0.02235101077343181,0.010909272700795001,-0.005003639252192596,-0.02721990373520582,-0.01548542822602681
2019/04/20,16:08:11
38/51,20/51
-0.021876814853172902,-0.011951159145586546,-0.02296522483420944,-0.01597030683168073,-0.007227900506353385,-0.00246416446827245,-0.0023060578038128637,-0.007092004896303676,-0.025213971759877305
2019/04/20,16:08:20
38/51,22/51
-0.008425310070121546,1.6277831820637328E-4,-0.009708952869055985,0.022545508193582985,0.030879936927318913,0.01074369864637429,0.008355147152861873,0.02560960939183355,0.00918678607895836
2019/04/20,16:08:23
40/51,22/51
-0.002264359481742452,-0.04174673498842171,-0.006217289862606294,-0.003860920224566314,0.012940611212502073,-0.009018427994829964,-0.008753637359537107,0.01354371696710921,0.0016203388168663903
2019/04/20,16:08:29
42/51,22/51
-0.006261995617580722,-0.014608742768053355,0.002780932590115288,0.01755591572768222,-0.02235101077343181,0.010909272700795001,-0.005003639252192596,-0.02721990373520582,-0.01548542822602681
2019/04/20,16:08:33
42/51,24/51
0.028239343020288972,0.03314310227488235,-0.01414451716069967,-0.013856180630139166,0.021756600949576696,0.003478750951251001,0.041944641553541724,-0.009150529365252014,0.023160448853913218
2019/04/20,16:08:40
46/51,24/51
-0.019525964636233434,0.01936499977064951,0.0025825660596237292,7.27025614418713E-4,-0.006336348867273054,-0.0035756302430106713,0.014620359443128523,3.1963557302431417E-4,0.006177926974444636
2019/04/20,16:08:46
48/51,24/51
-0.002264359481742452,-0.04174673498842171,-0.006217289862606294,-0.003860920224566314,0.012940611212502073,-0.009018427994829964,-0.008753637359537107,0.01354371696710921,0.0016203388168663903
2019/04/20,16:08:54
48/51,26/51
0.0319787067918141,-0.0064508603503108455,0.043333934820037875,8.896985789067753E-4,-0.0274747779921853,0.03814850798697341,-0.00795762260203358,0.011113656397265914,-0.042997729091690536
2019/04/20,16:08:59
50/51,26/51
-0.010721376904509895,0.005526588928657216,0.040339664037806956,-0.010238629101489108,-0.021135511156162568,0.003499866076207246,0.019939836108117084,-0.006071858248830605,-0.015006920433409638
2019/04/20,16:09:02
52/51,26/51
-0.019525964636233434,0.01936499977064951,0.0025825660596237292,7.27025614418713E-4,-0.006336348867273054,-0.0035756302430106713,0.014620359443128523,3.1963557302431417E-4,0.006177926974444636
2019/04/20,16:09:02
52/51,26/51
-0.010721376904509895,0.005526588928657216,0.040339664037806956,-0.010238629101489108,-0.021135511156162568,0.003499866076207246,0.019939836108117084,-0.006071858248830605,-0.015006920433409638
2019/04/20,16:19:39
2/51,0/51
0.030970861408747045,-0.009545826954298665,0.030428310313804788,0.03445503531845077,0.019626936815286083,-0.036119284991545327,-0.013160945391327752,0.009264848743276042,0.026585352870211295
2019/04/20,16:19:42
2/51,2/51
0.04763638872576065,-0.02022162138276401,0.036858463720749086,0.05444477281522599,0.03224098350226049,-0.04806839498360626,-0.045094529470793274,0.04762386324415422,0.046545330183395184
2019/04/20,16:19:44
4/51,2/51
0.009278497864215293,-0.007451669268113387,0.008123731080712161,0.014071125463785944,-0.011776337030318489,-0.032602814573762746,-0.037706170282214686,0.034302578617421565,0.038210110445339625
2019/04/20,16:19:47
6/51,2/51
-0.03903371550030211,0.003454753689714091,2.937254802758086E-4,-0.020081562156028437,0.026682157503008848,0.0013766057039418939,-0.01761478765794213,0.007695328788609339,0.021987854951441416
2019/04/20,16:19:52
6/51,4/51
-0.010721376904509895,0.005526588928657216,0.040339664037806956,-0.010238629101489108,-0.021135511156162568,0.003499866076207246,0.019939836108117084,-0.006071858248830605,-0.015006920433409638
2019/04/20,16:19:57
8/51,4/51
0.019696091493287948,-0.024417746200835568,0.02217047650330815,-0.0018006195716429169,-0.011497332422470325,-0.003505833079493788,-0.027657559658344513,0.013418872565242872,0.005239725430657399
2019/04/20,16:20:06
12/51,4/51
-0.015260375230461792,0.02255018736138225,-0.012117395024135318,0.036984114604848135,0.034785816203539946,0.03308947760911141,0.011624963624610702,-0.03158771222447509,-0.04390103930328996
2019/04/20,16:20:11
12/51,6/51
-0.03903371550030211,0.003454753689714091,2.937254802758086E-4,-0.020081562156028437,0.026682157503008848,0.0013766057039418939,-0.01761478765794213,0.007695328788609339,0.021987854951441416
2019/04/20,16:20:17
14/51,6/51
0.0038575298501611274,-0.026205022046589664,-0.04867423409726777,0.022331098321524023,0.023694745548956654,-0.046445726504545926,0.025288061000009278,-0.029524915288165726,-0.019101594763191333
2019/04/20,16:20:22
16/51,6/51
-0.02478841535006557,-0.011827238478736794,-0.022283635040313686,0.013915983674121418,0.018010059598713792,-0.015491490316079291,-0.011945955829486418,0.012062970553349553,-0.012571276083289125
2019/04/20,16:20:28
16/51,8/51
-0.015260375230461792,0.02255018736138225,-0.012117395024135318,0.036984114604848135,0.034785816203539946,0.03308947760911141,0.011624963624610702,-0.03158771222447509,-0.04390103930328996
2019/04/20,16:20:34
18/51,8/51
0.012059539130416772,-0.01465792841739881,-0.0038908156570785935,1.9817105613202657E-4,-0.0047463113576089525,-0.013945802694553228,-0.02060268296561844,-0.02164832326857855,0.0030962675461408892
2019/04/20,16:20:38
20/51,8/51
-0.005720728884214946,7.109871814787935E-4,0.0339263049845811,-0.028711370577474346,0.02827971076052073,-0.002889665067942592,-0.016064777644351852,0.027964157458715968,-0.03671790944603403
2019/04/20,16:20:48
20/51,10/51
-0.02478841535006557,-0.011827238478736794,-0.022283635040313686,0.013915983674121418,0.018010059598713792,-0.015491490316079291,-0.011945955829486418,0.012062970553349553,-0.012571276083289125
2019/04/20,16:20:52
20/51,12/51
-0.019194081398888226,0.03421538776354134,-0.009293709386372959,-0.02770192131027832,-0.006169886345188485,0.011149088086819688,-0.007602572091308904,-0.002901281097430118,-0.006002460347266437
2019/04/20,16:21:02
24/51,12/51
0.01661124037788757,-0.0010855094856162192,-9.258144263455358E-4,-0.007194564441473792,-0.0010796501915368677,-0.03295535820808239,0.0052749776169080135,0.002516320436365645,0.018465607214971598
2019/04/20,16:21:06
24/51,14/51
-0.005720728884214946,7.109871814787935E-4,0.0339263049845811,-0.028711370577474346,0.02827971076052073,-0.002889665067942592,-0.016064777644351852,0.027964157458715968,-0.03671790944603403
2019/04/20,16:21:09
26/51,14/51
0.026799843423709155,-0.04375971924399024,-0.004767637475062619,-0.02642209852871138,-0.020864573283962927,0.021301302241749063,-0.0042292900518573415,0.0012050377276593104,-0.01539631255028339
2019/04/20,16:21:12
28/51,14/51
-0.006968478016044284,-0.004620886268130918,0.002916215812152856,5.369523830041911E-4,0.007861613723821433,-0.020218805979635785,0.02806626702491443,-0.012418304328400213,-0.014043066516630908
2019/04/20,16:21:17
30/51,14/51
0.01661124037788757,-0.0010855094856162192,-9.258144263455358E-4,-0.007194564441473792,-0.0010796501915368677,-0.03295535820808239,0.0052749776169080135,0.002516320436365645,0.018465607214971598
2019/04/20,16:21:21
30/51,16/51
0.009901645470095777,0.008520446793771721,0.008815853936788385,-0.002178693100967924,0.004580736615776505,-0.012651256487532143,0.005018761909125311,-0.013690464102981342,-0.009441459428088623
2019/04/20,16:21:24
32/51,16/51
-0.03706433762844962,-0.017222077872742478,-0.02012230836858545,0.02085612984605573,-0.013486927414668937,0.02588269762739481,-0.019534434998937977,0.032115535049487026,0.038795564836109686
2019/04/20,16:21:27
32/51,18/51
-0.006968478016044284,-0.004620886268130918,0.002916215812152856,5.369523830041911E-4,0.007861613723821433,-0.020218805979635785,0.02806626702491443,-0.012418304328400213,-0.014043066516630908
2019/04/20,16:21:32
32/51,20/51
-0.003066956239751407,0.03746457180614953,-0.04017459846470597,-0.011210095209959255,-0.01185714124613213,0.01620826371914875,-0.010318440107068207,0.016437521086647124,0.0328322623262043
2019/04/20,16:21:34
32/51,22/51
0.038974996474876414,0.018091977632120025,-0.027822923880212694,0.023705631517221527,0.01086087728544969,0.0014397020416580565,-4.897280020330352E-4,-0.0014341018041468083,0.003123536189095978
2019/04/20,16:21:37
36/51,22/51
-0.03706433762844962,-0.017222077872742478,-0.02012230836858545,0.02085612984605573,-0.013486927414668937,0.02588269762739481,-0.019534434998937977,0.032115535049487026,0.038795564836109686
2019/04/20,16:21:43
38/51,22/51
-0.027130061189249842,0.03128441558042458,-0.006423939940625498,0.01061043431432119,0.0360071149518109,0.013193051231071175,0.009713283902220052,0.0051122832652779095,0.029246111350202636
2019/04/20,16:21:47
40/51,22/51
-0.01498793723500658,-0.0019612615519489993,0.03782140920751832,-0.002051258397704101,0.029679251822272188,-0.013828476891711261,-0.0010645731120748434,-0.03412325424842866,0.014831041441227698
2019/04/20,16:21:50
42/51,22/51
0.038974996474876414,0.018091977632120025,-0.027822923880212694,0.023705631517221527,0.01086087728544969,0.0014397020416580565,-4.897280020330352E-4,-0.0014341018041468083,0.003123536189095978
2019/04/20,16:21:53
44/51,22/51
0.005033986362168924,0.00912686799757945,-0.005417032011563124,-0.004424899554688166,-0.031231319695800862,-0.009267584144933014,0.0243334416853705,0.012220575724244521,-0.018459817197679855
2019/04/20,16:21:55
46/51,22/51
-0.0012611343028100241,-0.01749671933436567,0.010702327105371726,0.022852239630341838,-0.02865422771996463,-0.004118887992636646,-0.014836619619275869,0.003135353817935683,-7.984852694784481E-4
2019/04/20,16:22:01
48/51,22/51
-0.01498793723500658,-0.0019612615519489993,0.03782140920751832,-0.002051258397704101,0.029679251822272188,-0.013828476891711261,-0.0010645731120748434,-0.03412325424842866,0.014831041441227698
2019/04/20,16:22:08
48/51,24/51
-0.01397838493240717,0.04041069692986111,0.03710179395877265,0.0010188754964449514,0.005018960078038617,0.023856602013307172,0.0032825098253313947,-0.019632106138736123,-0.0026318546606413865
2019/04/20,16:22:16
48/51,26/51
0.02925813868029732,0.0166281367660302,0.03331675477373654,-0.027634878888012044,-0.011935244355177042,-0.025559030564285552,-0.027437803393317216,0.029063617710883144,0.01671308775213161
2019/04/20,16:22:20
50/51,26/51
-0.0012611343028100241,-0.01749671933436567,0.010702327105371726,0.022852239630341838,-0.02865422771996463,-0.004118887992636646,-0.014836619619275869,0.003135353817935683,-7.984852694784481E-4
2019/04/20,16:22:32
54/51,26/51
0.044847112236904914,0.004470856173572249,-0.010657731854148186,-0.02678329645101618,7.327622670292092E-4,0.011330363180022255,0.016168001942399,-0.038175238991530434,0.03243512973699919
2019/04/20,16:22:32
54/51,26/51
0.02925813868029732,0.0166281367660302,0.03331675477373654,-0.027634878888012044,-0.011935244355177042,-0.025559030564285552,-0.027437803393317216,0.029063617710883144,0.01671308775213161
