2019/04/14,17:50:41
0/3,3/3
0.0,0.0,0.0,0.0,0.0,0.0,0.0,0.0,0.0
2019/04/14,23:17:10
0/151,2/151
-0.0031555529126667016,-0.008278781753481219,-0.015418720960568701,-0.019363127085557645,-0.021075429621274275,-0.006232825085858781,-9.948221486201973E-4,-0.006490008118127524,-0.002513976304742388
2019/04/14,23:17:12
0/151,3/151
-0.011460982721183547,-0.01655103729529101,-0.02061235787996219,-0.02919212692021327,-0.03273435550606335,-0.027472591460684363,-0.007378588436146662,-0.02180720957545796,-0.015197247688024072
2019/04/14,23:17:16
1/151,3/151
-0.025700898633113613,-0.02831570308499748,-0.04142117995062692,-0.04774711495515104,-0.04969049234236582,-0.033673486107233024,-0.016010001708300914,-0.02629515328360312,-0.01965083127578799
2019/04/14,23:17:20
2/151,3/151
-0.030826396344996777,-0.033597406651796065,-0.04887501972516766,-0.06397806732903905,-0.05048767807357512,-0.04406556806038024,-0.028766145990834806,-0.039147574874440434,-0.03817769205343532
2019/04/14,23:17:23
3/151,3/151
-0.034124936633663824,-0.038254708216123326,-0.06942898777895687,-0.08086431992114407,-0.06306215351834754,-0.05745053226415142,-0.03522014854595516,-0.050737502041671705,-0.04374333036208166
2019/04/14,23:17:25
4/151,3/151
-0.029677189829592825,-0.024668335832220323,-0.049200580540986416,-0.07665755236654859,-0.043888175022050384,-0.048641742445625476,-0.025145774675506015,-0.04222137916709874,-0.023681942694475086
2019/04/14,23:17:27
5/151,3/151
-0.025035625676184753,-0.02335915748395795,-0.029045708269796078,-0.06301134762587123,-0.022022873532905832,-0.04392930558915911,-0.012876362630815008,-0.040955837982961214,-0.021518926606363634
2019/04/14,23:17:29
5/151,4/151
0.0,0.0,0.0,0.0,0.0,0.0,0.0,0.0,0.0
2019/04/14,23:17:32
5/151,5/151
-0.008504377759807046,-0.004806885714637934,-0.01517895393660344,-0.020732498767092915,-0.011102366358598431,-0.003280974070848169,-0.0036280734511336924,-0.00306021827688353,-0.006289994960439415
2019/04/14,23:17:34
5/151,6/151
-0.030773596288631112,-0.01111733432515477,-0.03233975121796043,-0.03442280200564125,-0.012656762094238256,-0.004349928295899509,-0.023190955742760973,-0.024653613546972944,-0.00920680248811936
2019/04/14,23:17:37
5/151,7/151
-0.03152800083989047,-0.01136652703009776,-0.04469098895544486,-0.043573098754923406,-0.013527392176721113,-0.020569703022954543,-0.027530772753971925,-0.04199874154057826,-0.009879440775381759
2019/04/14,23:17:40
6/151,7/151
-0.051040250874620705,-0.02991971554710067,-0.05860397814749053,-0.06387353444745314,-0.02018635286139811,-0.025346250326514913,-0.030752533811657365,-0.05022467664680112,-0.013010461786341916
2019/04/14,23:17:43
7/151,7/151
-0.07147524919428369,-0.036023006904074666,-0.06267313174342122,-0.07474020450777835,-0.04064707441431742,-0.025955968858970405,-0.03128232746488034,-0.06991049452582017,-0.01777907525339107
2019/04/14,23:17:46
7/151,8/151
-0.07761201722799843,-0.053568774135815095,-0.07102145676618532,-0.09585245715013016,-0.04816616107188419,-0.03267932637522413,-0.032455922630496195,-0.07424767919679748,-0.020615523163131335
2019/04/14,23:17:49
7/151,9/151
-0.08306730592191955,-0.075630256368536,-0.08932492838335557,-0.11558832423776644,-0.0569195562754291,-0.033341984353583834,-0.051302459281236945,-0.09527560952487042,-0.032783522284606174
2019/04/14,23:17:55
8/151,9/151
-0.09875427778189494,-0.09139810679597302,-0.10173649578004251,-0.13058435975922608,-0.05846664561316075,-0.046601085700676184,-0.05848086273272651,-0.11282382730149773,-0.05432276063648919
2019/04/14,23:17:57
9/151,9/151
-0.11486905907647031,-0.09973643662204547,-0.1232243333141937,-0.15042762052528064,-0.07685908883220624,-0.05949234264401556,-0.06814190026318004,-0.13530939983652152,-0.056557107569330564
2019/04/14,23:18:00
9/151,10/151
-0.1149012411252121,-0.1052949216182456,-0.1352809947585627,-0.15828950669987157,-0.08160426950572208,-0.06526942959396838,-0.07534589497206039,-0.14239852765206493,-0.0751751922752174
2019/04/14,23:18:02
9/151,11/151
-0.12888553663479793,-0.10848670684566482,-0.1473013572395359,-0.16028737602741971,-0.10357910365387885,-0.0684134387077487,-0.07675855161792937,-0.16266549329899663,-0.08839303903974104
2019/04/14,23:18:05
9/151,12/151
-0.14322407372977256,-0.10928423122280759,-0.15394369134146604,-0.16198730774515196,-0.12331980184676951,-0.09088515930017808,-0.09777363672561215,-0.1651049950990033,-0.09469611844549217
2019/04/14,23:18:07
10/151,12/151
-0.14854658047101094,-0.12683190269214462,-0.17309204334854755,-0.16556988600497322,-0.13060227927714876,-0.11098009171818027,-0.10361960845633737,-0.18185353935779913,-0.10189223377462708
2019/04/14,23:18:11
10/151,13/151
-0.16834668508740852,-0.13328240228475008,-0.1927291419371262,-0.18200512043928474,-0.1358491329277021,-0.1305328702179208,-0.11133999263957915,-0.1887512470020809,-0.11987950521011592
2019/04/14,23:18:14
10/151,14/151
-0.18497462709741225,-0.14347198349888463,-0.19294233995592486,-0.1839662682705203,-0.15323305549746363,-0.15081414498661008,-0.1281802471607101,-0.19459788346485654,-0.13795175783819805
2019/04/14,23:18:17
10/151,15/151
-0.18740304746223604,-0.15462935906814762,-0.20424429396889096,-0.19002751433778917,-0.16372112454695173,-0.16832458196753428,-0.1460329786518146,-0.20495511090381213,-0.16030949730604335
2019/04/14,23:18:23
11/151,15/151
-0.19047088310600674,-0.17666787098040773,-0.22201585851261757,-0.19253448375292342,-0.1765185268278846,-0.17188333155047333,-0.15103160314511807,-0.21143988335199365,-0.16217936221187793
2019/04/14,23:18:25
12/151,15/151
-0.2089113816013755,-0.1971295450449744,-0.23352835522093152,-0.20872121923910614,-0.19190206322116538,-0.17774417432456302,-0.16786325828929174,-0.2132797487614953,-0.16910771854394777
2019/04/14,23:18:29
13/151,15/151
-0.23016386446036302,-0.20545472247583746,-0.2519096848340771,-0.2196885255789465,-0.21390956953470472,-0.1925886690656779,-0.17456301062002563,-0.23514658321538714,-0.17300478625737822
2019/04/14,23:18:32
14/151,15/151
-0.2340338466197631,-0.213485121034428,-0.2564732700946715,-0.22107597466842122,-0.21407203744277636,-0.20412647823552693,-0.1807207864922491,-0.25744128359765334,-0.1783149295703349
2019/04/14,23:18:37
15/151,15/151
-0.25138470049671424,-0.2177538165165862,-0.2766964678302728,-0.23865221996867428,-0.22258142705460032,-0.2101330734660548,-0.19748679581101306,-0.27140584122351824,-0.18021248038470117
2019/04/14,23:18:44
15/151,16/151
-0.2666068324126844,-0.2222096515665861,-0.28623949717816083,-0.25086055271013435,-0.2274958997829466,-0.2272630735439482,-0.20785679305878685,-0.28417184988797733,-0.18282550890406102
2019/04/14,23:18:48
15/151,17/151
-0.2884184121624766,-0.244799600392425,-0.30144763893783255,-0.2669726995785899,-0.23829339366721922,-0.24079249759664711,-0.22939189325296264,-0.2872246221455246,-0.19613416433658729
2019/04/14,23:18:52
16/151,17/151
-0.30456086446667474,-0.2552460350993673,-0.3066772299294968,-0.28696251606922163,-0.2611740445294864,-0.2570543576151204,-0.2447408804019626,-0.30813713329619796,-0.20323945410599162
2019/04/14,23:18:56
17/151,17/151
-0.31897364979720155,-0.2686190259046582,-0.3125891599100968,-0.2881138914107324,-0.2633723440526071,-0.26517778322856533,-0.24779696948697638,-0.3119490158370577,-0.21960874147056886
2019/04/14,23:18:57
18/151,17/151
-0.3066155247454798,-0.25918445865090856,-0.2956531754125076,-0.2726468247011533,-0.25840148229822,-0.2637976313669956,-0.2455192174790236,-0.3080890796423455,-0.2161700036124434
2019/04/14,23:18:59
19/151,17/151
-0.2838010021155769,-0.24994308019676964,-0.2884630567891072,-0.2670190338713197,-0.24627192688029187,-0.25420781852027224,-0.22780752935363874,-0.29115308521805583,-0.20000913575057766
2019/04/14,23:19:01
19/151,18/151
-0.025035625676184753,-0.02335915748395795,-0.029045708269796078,-0.06301134762587123,-0.022022873532905832,-0.04392930558915911,-0.012876362630815008,-0.040955837982961214,-0.021518926606363634
2019/04/14,23:19:02
20/151,18/151
-0.01783381070536013,-0.010706816435611057,-0.009469839258648739,-0.05193549193099639,-0.015956977415803385,-0.03556093987872604,-0.008363885266944981,-0.02343399607146542,-0.0016067076342692645
2019/04/14,23:19:04
21/151,18/151
7.430556412492163E-4,0.008742677396158567,0.012324864275863358,-0.033676429420114284,0.00409233066889832,-0.02388588643453059,0.006209622227649602,-0.011063540607208055,0.017655444930217885
2019/04/14,23:19:05
21/151,19/151
-0.2838010021155769,-0.24994308019676964,-0.2884630567891072,-0.2670190338713197,-0.24627192688029187,-0.25420781852027224,-0.22780752935363874,-0.29115308521805583,-0.20000913575057766
2019/04/14,23:19:07
21/151,20/151
-0.2633938257278781,-0.24452988999885328,-0.2680691932889915,-0.25740631187714025,-0.23486054039973425,-0.24468306611036159,-0.2221325419440319,-0.27856104281189414,-0.17802840707358047
2019/04/14,23:19:09
22/151,20/151
-0.2578633670954188,-0.2434123646825128,-0.26509027964458126,-0.24782783693626675,-0.23193333443922592,-0.22847579386919123,-0.2038811300036517,-0.26182522164370486,-0.16466061100580634
2019/04/14,23:19:11
22/151,21/151
7.430556412492163E-4,0.008742677396158567,0.012324864275863358,-0.033676429420114284,0.00409233066889832,-0.02388588643453059,0.006209622227649602,-0.011063540607208055,0.017655444930217885
2019/04/14,23:19:12
22/151,22/151
0.006050055345050999,0.015474969629801077,0.03238080237841215,-0.04913891453047671,0.01766159340440058,-0.03302159993892079,0.028351371633736727,-0.03370966833076089,0.035940961288701466
2019/04/14,23:19:14
23/151,22/151
0.0012260536495749298,0.009383014603960481,0.030636721530409756,-0.04420044249637506,0.00970010726961532,-0.012665718495880947,0.020605703388437074,-0.027593380215858252,0.014655071916238226
2019/04/14,23:19:15
24/151,22/151
-0.017176820629491298,0.002452968253980981,0.010678523906551912,-0.02793457557059624,0.00940669701931283,-0.007227550692450736,-0.0013493897442381775,-0.02198684661674819,-5.723550368134604E-4
2019/04/14,23:19:16
24/151,23/151
-0.2578633670954188,-0.2434123646825128,-0.26509027964458126,-0.24782783693626675,-0.23193333443922592,-0.22847579386919123,-0.2038811300036517,-0.26182522164370486,-0.16466061100580634
2019/04/14,23:19:19
24/151,24/151
-0.27169076562818295,-0.2571558363696229,-0.2706510797886228,-0.2640293320045682,-0.23483726675116515,-0.2322843815202217,-0.21043613522038693,-0.2803354669491013,-0.17406305403784816
2019/04/14,23:19:21
25/151,24/151
-0.24912609698270774,-0.2545716933044447,-0.2650141752845377,-0.26069167354594197,-0.22981755028986578,-0.22434069848125204,-0.20573428499043744,-0.2720010249728643,-0.15319811243426204
2019/04/14,23:19:22
26/151,24/151
-0.23640760773240846,-0.2357249640636348,-0.26458582283108467,-0.25977151906085544,-0.22916287087336928,-0.21670414781872166,-0.18487447682159586,-0.2553966457702939,-0.137655037571288
2019/04/14,23:19:24
27/151,24/151
-0.017176820629491298,0.002452968253980981,0.010678523906551912,-0.02793457557059624,0.00940669701931283,-0.007227550692450736,-0.0013493897442381775,-0.02198684661674819,-5.723550368134604E-4
2019/04/14,23:19:27
27/151,25/151
-0.01529427588382577,-0.019073339755058448,-0.007904653543399306,-0.00755715774955908,-0.008676876661821339,0.008168156430358488,0.01759370663908863,-0.016141790705052474,-1.399826152851628E-4
2019/04/14,23:19:29
27/151,26/151
-0.009651131160456792,0.0025095348610050736,0.012242315984516933,0.0037075397114150945,0.004336431260588443,0.006192055032571077,0.014766225003981748,-0.005601476449087945,0.021817573120964027
2019/04/14,23:19:32
28/151,26/151
-0.23640760773240846,-0.2357249640636348,-0.26458582283108467,-0.25977151906085544,-0.22916287087336928,-0.21670414781872166,-0.18487447682159586,-0.2553966457702939,-0.137655037571288
2019/04/14,23:19:36
28/151,27/151
-0.22664369644472362,-0.23341382071780192,-0.2578795271802896,-0.2478339535888132,-0.2266716330145175,-0.19689988607584885,-0.17219018868971586,-0.252343711321638,-0.12154186963296756
2019/04/14,23:19:40
29/151,27/151
-0.22601969674724673,-0.2115061372324003,-0.23827927629094686,-0.23450549782527655,-0.22105118350600744,-0.19052678812300874,-0.1652501194344902,-0.2363151191263721,-0.10133876142646292
2019/04/14,23:19:42
30/151,27/151
-0.009651131160456792,0.0025095348610050736,0.012242315984516933,0.0037075397114150945,0.004336431260588443,0.006192055032571077,0.014766225003981748,-0.005601476449087945,0.021817573120964027
2019/04/14,23:19:46
31/151,27/151
-0.004039168696915246,-0.001349047205413548,-0.003391870780245391,-0.014103806210414785,0.0013705569533413392,-0.009856240202079019,8.756118323915985E-4,-3.734360286319861E-4,0.01169891677304113
2019/04/14,23:19:48
32/151,27/151
0.01656686203138662,0.011040107003278319,-0.0011488131869940225,-0.001846314753067473,-0.011262716139193305,0.011678867193350422,-0.014091279397987738,0.011369947907887177,-6.188519086956258E-5
2019/04/14,23:19:49
33/151,27/151
-0.22601969674724673,-0.2115061372324003,-0.23827927629094686,-0.23450549782527655,-0.22105118350600744,-0.19052678812300874,-0.1652501194344902,-0.2363151191263721,-0.10133876142646292
2019/04/14,23:19:51
34/151,27/151
-0.22092366897649124,-0.20742587833922127,-0.22059667300956934,-0.22631843041293753,-0.21348304142753924,-0.18438277648978138,-0.1626674559955614,-0.23224213153894016,-0.08886877744323012
2019/04/14,23:19:52
34/151,28/151
-0.2008796040236675,-0.18446653384889466,-0.20777140682953082,-0.21166799766348154,-0.19631924787556226,-0.16716436779462412,-0.15716993558741418,-0.21115495760650782,-0.07274280344935777
2019/04/14,23:19:54
35/151,28/151
0.01656686203138662,0.011040107003278319,-0.0011488131869940225,-0.001846314753067473,-0.011262716139193305,0.011678867193350422,-0.014091279397987738,0.011369947907887177,-6.188519086956258E-5
2019/04/14,23:19:56
35/151,29/151
0.015245025123817582,9.532957181490366E-4,0.015578533001143254,0.017914609953706348,-0.008056899081628594,-0.008002090630664847,-0.004630857590671637,0.0024626143205057193,0.02050889852555273
2019/04/14,23:19:58
35/151,30/151
0.0020888910003103636,-0.0058728979770941055,0.012501141297597322,0.00461917339367586,0.01309253821083878,0.007106326024926031,0.0024431691648591483,-0.003617262854701416,0.013534196511938105
2019/04/14,23:20:00
35/151,31/151
-0.2008796040236675,-0.18446653384889466,-0.20777140682953082,-0.21166799766348154,-0.19631924787556226,-0.16716436779462412,-0.15716993558741418,-0.21115495760650782,-0.07274280344935777
2019/04/14,23:20:02
36/151,31/151
-0.18894392026809415,-0.16196555541376795,-0.18527063581664305,-0.19051242830421444,-0.19406795430661128,-0.15855902742405237,-0.13722520567968413,-0.18912152429778703,-0.05820870746809002
2019/04/14,23:20:04
37/151,31/151
-0.16802970059208278,-0.15276263311154645,-0.17585500450090122,-0.17244991214568597,-0.17930631884876896,-0.14404580961442032,-0.12941326538613546,-0.17769791955631614,-0.03867196281130598
2019/04/14,23:20:06
38/151,31/151
0.0020888910003103636,-0.0058728979770941055,0.012501141297597322,0.00461917339367586,0.01309253821083878,0.007106326024926031,0.0024431691648591483,-0.003617262854701416,0.013534196511938105
2019/04/14,23:20:07
38/151,32/151
-3.303608541825611E-4,0.005632175691892024,0.012433443325785038,0.003220216500815747,-2.3200397586246E-4,0.00248973787110272,-0.0017288604275557378,0.0011412960134165977,-0.0068392013742057944
2019/04/14,23:20:08
38/151,33/151
0.005747586929293695,-0.015701685970486247,0.001463646578886233,-0.0029446782628311397,0.001270977292071836,0.001679761103341069,0.00491918889926258,-0.005908411997878811,0.015243267206899103
2019/04/14,23:20:10
39/151,33/151
-0.16802970059208278,-0.15276263311154645,-0.17585500450090122,-0.17244991214568597,-0.17930631884876896,-0.14404580961442032,-0.12941326538613546,-0.17769791955631614,-0.03867196281130598
2019/04/14,23:20:11
39/151,34/151
-0.14919894131406233,-0.13810181345592404,-0.16444447804824489,-0.16962449019177625,-0.16221451482339844,-0.13337119969335942,-0.1070841095924931,-0.16299214613821372,-0.030483743738318532
2019/04/14,23:20:13
39/151,35/151
-0.1301768067494225,-0.11728819632547838,-0.15857933510174077,-0.1472552330953043,-0.15895440129954916,-0.12085332476599403,-0.10537155332447992,-0.14188263720627609,-0.01742868566709157
2019/04/14,23:20:14
40/151,35/151
0.005747586929293695,-0.015701685970486247,0.001463646578886233,-0.0029446782628311397,0.001270977292071836,0.001679761103341069,0.00491918889926258,-0.005908411997878811,0.015243267206899103
2019/04/14,23:20:16
41/151,35/151
-0.007783973977684041,-0.015009772339082864,-0.0064039586345084835,0.014207718019977332,-0.01766379342349312,-0.014406799961951234,-0.017757795096319768,0.014795264567531928,0.004524077668092185
2019/04/14,23:20:19
41/151,36/151
0.0029030453717846325,0.0069513999659476244,0.014168612898726734,-9.761812612438976E-4,-0.0034705059962549575,0.002869312065644119,-0.008113768760487314,0.011063721899583911,-0.004402340032356138
2019/04/14,23:20:20
42/151,36/151
-0.1301768067494225,-0.11728819632547838,-0.15857933510174077,-0.1472552330953043,-0.15895440129954916,-0.12085332476599403,-0.10537155332447992,-0.14188263720627609,-0.01742868566709157
2019/04/14,23:20:22
42/151,37/151
-0.12639150186197515,-0.11294245131155853,-0.14836590933695015,-0.13148759622359052,-0.15790638399379495,-0.11148377146527327,-0.09775706688142322,-0.12533668846790796,-0.013915210953867333
2019/04/14,23:20:24
43/151,37/151
-0.10787549689742437,-0.10027804736469005,-0.13697981854758404,-0.11187652350494934,-0.15441596318034262,-0.09616904827042877,-0.07898755829475608,-0.11301920494387273,0.00455318620692283
2019/04/14,23:20:26
44/151,37/151
0.0029030453717846325,0.0069513999659476244,0.014168612898726734,-9.761812612438976E-4,-0.0034705059962549575,0.002869312065644119,-0.008113768760487314,0.011063721899583911,-0.004402340032356138
2019/04/14,23:20:28
45/151,37/151
-0.007362473386226073,-0.015881781327489446,0.012560363150602306,0.012092498178567421,0.011969903597556047,-0.017813596668108014,-0.007893107181716543,-0.010098711718100254,-0.0037936187872828564
2019/04/14,23:20:32
46/151,37/151
0.007996613688321259,0.004516772135554448,-1.5121887986385696E-5,0.011667059630583674,-0.0034938672847624162,-0.010891212898439875,-0.003459729335659534,0.009335295935375925,0.011649901889052044
2019/04/14,23:20:33
46/151,38/151
-0.10787549689742437,-0.10027804736469005,-0.13697981854758404,-0.11187652350494934,-0.15441596318034262,-0.09616904827042877,-0.07898755829475608,-0.11301920494387273,0.00455318620692283
2019/04/14,23:20:35
47/151,38/151
-0.10025267084322517,-0.08299959503245805,-0.11685315736671052,-0.10749942220637054,-0.13919915109581044,-0.08489425126038343,-0.06279968494445323,-0.09684677049802992,-0.0172067537941092
2019/04/14,23:20:37
48/151,38/151
-0.08529349514765186,-0.08159153425306986,-0.10906232591022498,-0.08806032297006766,-0.12632234577961035,-0.08448235537548407,-0.04568965549639414,-0.0821448889819718,-0.007444362514127599
2019/04/14,23:20:39
49/151,38/151
0.007996613688321259,0.004516772135554448,-1.5121887986385696E-5,0.011667059630583674,-0.0034938672847624162,-0.010891212898439875,-0.003459729335659534,0.009335295935375925,0.011649901889052044
2019/04/14,23:20:41
50/151,38/151
-0.0034153682749943886,-0.0064648594929917185,0.00554562230173229,-0.0035133681568232447,0.010175679951108752,-2.457366832173454E-4,0.009016758987457487,-0.00484755298862412,0.0027865717743490396
2019/04/14,23:20:44
50/151,39/151
-0.0015435880781948616,0.008222465170532683,-3.8077060550482933E-4,-0.0021861309087168497,0.006978462343617856,0.0012756413978523558,0.0015366199921323324,0.003278203093228762,-0.01706325138606997
2019/04/14,23:20:46
50/151,40/151
-0.08529349514765186,-0.08159153425306986,-0.10906232591022498,-0.08806032297006766,-0.12632234577961035,-0.08448235537548407,-0.04568965549639414,-0.0821448889819718,-0.007444362514127599
2019/04/14,23:20:49
51/151,40/151
-0.08211412842511631,-0.0765957583731992,-0.10594779275960173,-0.075825300173917,-0.11581517718610249,-0.07518121795888222,-0.031943253851703726,-0.06692613005869044,0.013768600576303558
2019/04/14,23:20:51
51/151,41/151
-0.06646182365296,-0.07291256102429852,-0.09130105060813751,-0.05514103280249441,-0.11119795385303188,-0.062240591308176725,-0.024096978777775568,-0.05820230749832838,0.010923652483862283
2019/04/14,23:20:53
52/151,41/151
-0.0015435880781948616,0.008222465170532683,-3.8077060550482933E-4,-0.0021861309087168497,0.006978462343617856,0.0012756413978523558,0.0015366199921323324,0.003278203093228762,-0.01706325138606997
2019/04/14,23:20:54
52/151,42/151
0.020277296908240913,-5.101211078232405E-4,0.0011742337772417716,0.008810153150268741,-0.013436424918928184,-0.008525904927735408,-0.005371439844125337,-0.004972510216069689,0.005798219553921947
2019/04/14,23:20:56
53/151,42/151
0.0016125400438518796,0.01726508416165639,-0.016093390126420734,0.006627891144747789,0.006129429798341435,0.012391514277031104,0.015834544967681535,-0.003976053438228512,-3.8711796815868796E-5
2019/04/14,23:20:58
54/151,42/151
-0.06646182365296,-0.07291256102429852,-0.09130105060813751,-0.05514103280249441,-0.11119795385303188,-0.062240591308176725,-0.024096978777775568,-0.05820230749832838,0.010923652483862283
2019/04/14,23:21:00
54/151,43/151
-0.06284393273540666,-0.05007611354469904,-0.07882582799709145,-0.04488192779778097,-0.09324991749671076,-0.050644501529718146,-0.0037369641289485937,-0.03982668569828042,-0.011523947096060645
2019/04/14,23:21:02
54/151,44/151
-0.044209219018712095,-0.04956889325699292,-0.06427680798109388,-0.024037636118457897,-0.0867848895833109,-0.034923871253976196,0.014041557512193843,-0.03631678116341975,0.005973440796228378
2019/04/14,23:21:04
54/151,45/151
0.0016125400438518796,0.01726508416165639,-0.016093390126420734,0.006627891144747789,0.006129429798341435,0.012391514277031104,0.015834544967681535,-0.003976053438228512,-3.8711796815868796E-5
2019/04/14,23:21:05
54/151,46/151
-0.01652998834486783,0.006605794942233409,0.006020258182589697,-0.014536012940009944,-3.7232857605491287E-4,-0.008465833755725077,0.0028463335399443526,0.001368291877299816,0.020258912518101628
2019/04/14,23:21:07
54/151,47/151
-0.016451697440600824,-0.0013188036440335872,-0.0041212829830472916,-0.010219817300480204,0.01652451375058597,-0.005490054051058327,0.0010762055966303,-5.216576345654328E-5,0.008852892197710889
2019/04/14,23:21:08
54/151,48/151
-0.044209219018712095,-0.04956889325699292,-0.06427680798109388,-0.024037636118457897,-0.0867848895833109,-0.034923871253976196,0.014041557512193843,-0.03631678116341975,0.005973440796228378
2019/04/14,23:21:10
55/151,48/151
-0.04403329222116036,-0.039773393902722554,-0.06288349874254205,-0.016702429622289044,-0.08562649184551174,-0.01899123673230603,-0.007869598782441648,-0.02283851818210928,-0.00840381197113023
2019/04/14,23:21:13
55/151,49/151
-0.04182083509439619,-0.03453375166201298,-0.06150816231803151,0.0028221623305094007,-0.07502970050333325,-0.01521972878777218,-6.714281068700119E-4,-0.0186167365839828,-1.4963470425091024E-5
2019/04/14,23:21:15
56/151,49/151
-0.016451697440600824,-0.0013188036440335872,-0.0041212829830472916,-0.010219817300480204,0.01652451375058597,-0.005490054051058327,0.0010762055966303,-5.216576345654328E-5,0.008852892197710889
2019/04/14,23:21:17
57/151,49/151
-0.016266457784443175,0.0070654280226127835,-0.001254451333403051,-0.004193117437228364,0.01593227806394789,-0.0051443135255280865,-0.0217768020061786,0.01874723614322672,-0.013996060379709378
2019/04/14,23:21:21
58/151,49/151
-0.014623716585290901,-0.0113835083703048,0.015951405267903528,-2.8942497270492435E-4,-0.004781405089431395,0.012743571225572129,-0.020343039335769864,0.0037864410139400954,-0.012716848013510041
2019/04/14,23:21:24
59/151,49/151
-0.04182083509439619,-0.03453375166201298,-0.06150816231803151,0.0028221623305094007,-0.07502970050333325,-0.01521972878777218,-6.714281068700119E-4,-0.0186167365839828,-1.4963470425091024E-5
2019/04/14,23:21:26
60/151,49/151
-0.022368074789719705,-0.011951407058905381,-0.04697179820482741,-0.007692881177724686,-0.06475471937103103,7.544280723910807E-4,0.01735538565730197,-0.0063187661749418075,0.010954232042965263
2019/04/14,23:21:28
61/151,49/151
-0.016471246150595822,0.006432935784327427,-0.026215584118014862,2.814824869419273E-4,-0.06391731669003481,-0.0182155346771903,-0.0052307840454016465,0.006673423527382587,-0.002594954463079901
2019/04/14,23:21:30
62/151,49/151
-0.014623716585290901,-0.0113835083703048,0.015951405267903528,-2.8942497270492435E-4,-0.004781405089431395,0.012743571225572129,-0.020343039335769864,0.0037864410139400954,-0.012716848013510041
2019/04/14,23:21:32
63/151,49/151
0.004219903479268754,0.006555720981419768,0.0010919875832920336,-1.5655736625135814E-4,1.9175460050421984E-4,0.012232214567068371,-0.00571996168741303,-0.015988260445879032,-0.012472351099989707
2019/04/14,23:21:34
64/151,49/151
-0.0033662950341064365,-0.008781626871879132,-0.008465555110835686,0.004905785212840182,-0.017289790446278715,0.011285450062872637,0.016410540413731245,-9.867813322540255E-4,-0.011773823515379497
2019/04/14,23:21:37
65/151,49/151
-0.016471246150595822,0.006432935784327427,-0.026215584118014862,2.814824869419273E-4,-0.06391731669003481,-0.0182155346771903,-0.0052307840454016465,0.006673423527382587,-0.002594954463079901
2019/04/14,23:21:38
65/151,50/151
4.8964663913454026E-5,0.0019225429393909324,-0.016112550017976675,-9.24034958742216E-4,-0.05246950290464729,-0.0135027090652916,-0.0012434440174910744,8.811048778009905E-5,0.0013922455042017891
2019/04/14,23:21:40
65/151,51/151
-0.008425721553052632,-0.004482096802952112,0.004616429573048062,0.0015961199912963185,-0.035559739238737814,-0.0020288332572568155,0.02123715655283798,-0.016262626485177713,-0.014956124814986732
2019/04/14,23:21:44
65/151,52/151
-0.0033662950341064365,-0.008781626871879132,-0.008465555110835686,0.004905785212840182,-0.017289790446278715,0.011285450062872637,0.016410540413731245,-9.867813322540255E-4,-0.011773823515379497
2019/04/14,23:21:47
66/151,52/151
0.004990079451952871,-0.002829284984435707,0.011770111467794572,-0.017619138055911403,0.0025665389324785355,0.010512827969189276,-0.0054995629720129904,0.00506230306536373,-3.048275571108684E-4
2019/04/14,23:21:49
66/151,53/151
-0.017884722114468947,0.012402021272086887,-0.01048212717813063,-0.001254954057364914,-0.012200371106391788,0.007868740415327896,0.0026473126811717186,-0.0037889481500248427,0.011878830818659392
2019/04/14,23:21:51
66/151,54/151
-0.008425721553052632,-0.004482096802952112,0.004616429573048062,0.0015961199912963185,-0.035559739238737814,-0.0020288332572568155,0.02123715655283798,-0.016262626485177713,-0.014956124814986732
2019/04/14,23:21:53
67/151,54/151
-0.0018854550941945249,-8.274651479424377E-4,-0.01810457117630667,-5.279243501311892E-4,-0.029713058367918026,0.00878912442296883,0.020049934872832933,-0.005076591764196182,-0.0012490581470373414
2019/04/14,23:21:56
68/151,54/151
0.015622346612017775,0.012047161000001878,-0.0014431955687645888,0.015509901962996257,-0.026081579209534664,0.005030509887886665,0.019365052377367145,0.007724140125960651,0.012526469632544123
2019/04/14,23:21:58
68/151,55/151
-0.017884722114468947,0.012402021272086887,-0.01048212717813063,-0.001254954057364914,-0.012200371106391788,0.007868740415327896,0.0026473126811717186,-0.0037889481500248427,0.011878830818659392
2019/04/14,23:22:00
69/151,55/151
-5.695552498687882E-4,0.005409477699762626,-0.0035055128886683287,0.0065918096132572025,-0.006518868098861799,-0.0058681495510148375,-0.0031987288681285765,0.009560284573400381,-0.0063893922253616415
2019/04/14,23:22:02
69/151,56/151
0.010216590904409382,0.00483493152156322,0.01315870340933056,-7.66691571200722E-4,-0.0056638026096308075,-0.005632517887561583,0.0040404992837125495,-0.0012720198687498022,0.008882173813410789
2019/04/14,23:22:05
69/151,57/151
0.015622346612017775,0.012047161000001878,-0.0014431955687645888,0.015509901962996257,-0.026081579209534664,0.005030509887886665,0.019365052377367145,0.007724140125960651,0.012526469632544123
2019/04/14,23:22:09
70/151,57/151
1.5945134586249805E-4,0.007709092141990317,0.016127801358593662,0.009237200825791755,-0.004271203684842028,0.004954879778396385,0.00577681794353949,0.004809186627524472,-0.005686631620821454
2019/04/14,23:22:12
70/151,58/151
-0.01630869890067818,-1.1651093659174275E-4,0.009523445115710709,-0.00856153962829135,0.011371022530098009,-0.002082406904447532,-0.013035631599820182,0.002763451911559607,0.014352975411168051
2019/04/14,23:22:15
71/151,58/151
0.010216590904409382,0.00483493152156322,0.01315870340933056,-7.66691571200722E-4,-0.0056638026096308075,-0.005632517887561583,0.0040404992837125495,-0.0012720198687498022,0.008882173813410789
2019/04/14,23:22:18
71/151,59/151
0.007518653439114405,-0.0010690222916718258,0.0054525470030706595,0.003429137163129338,-0.001637781075573057,0.003151520791749492,-0.01058215094623805,0.018599758358080178,0.0013128970735085026
2019/04/14,23:22:20
71/151,60/151
0.007310839686615854,0.007435780871630742,-0.010650959595064066,-0.010650168307226319,0.0023788859329473564,-0.015469375942158492,-0.003684541037735083,0.004173771367352407,-0.010307587322001436
2019/04/14,23:22:22
71/151,61/151
-0.01630869890067818,-1.1651093659174275E-4,0.009523445115710709,-0.00856153962829135,0.011371022530098009,-0.002082406904447532,-0.013035631599820182,0.002763451911559607,0.014352975411168051
2019/04/14,23:22:26
71/151,62/151
-0.005139572838819731,0.001733969733908553,3.407047031828061E-4,0.0029031367167443606,-0.006514841051884435,0.018305096760950688,0.006157819789845125,-0.014088566924754386,-0.00602765196501313
2019/04/14,23:22:30
71/151,63/151
-0.004947816282393102,-0.004113290324376263,-0.002140579487873781,-0.013540546882186933,0.006696230941243227,0.00823449622600182,-0.0033829905634042666,-0.003190175779022437,0.00950419408394191
2019/04/14,23:22:32
71/151,64/151
0.007310839686615854,0.007435780871630742,-0.010650959595064066,-0.010650168307226319,0.0023788859329473564,-0.015469375942158492,-0.003684541037735083,0.004173771367352407,-0.010307587322001436
2019/04/14,23:22:39
73/151,64/151
-0.00523175449355622,0.0017874136112460103,0.0045196977906398934,0.008052733688305645,-0.01020674370338414,0.004389028101042814,0.014902234263867893,-0.00441025921907401,0.0030638045000726793
2019/04/14,23:22:41
73/151,65/151
-0.003574548285558055,0.0013868448080484024,0.00450594967915283,-0.005181117862154855,0.011096517058649079,7.05319209547319E-4,-0.0034950922540439404,8.837538282667739E-5,-0.0092723421271774
2019/04/14,23:22:51
74/151,65/151
-0.004947816282393102,-0.004113290324376263,-0.002140579487873781,-0.013540546882186933,0.006696230941243227,0.00823449622600182,-0.0033829905634042666,-0.003190175779022437,0.00950419408394191
2019/04/14,23:22:56
75/151,65/151
-0.0028082575448936807,0.011532983652903648,0.015047881110722758,0.008201620624388091,-0.006463832369253774,-0.013323919088605652,0.01880861450259602,0.002941500468882703,0.006575469757498327
2019/04/14,23:22:59
75/151,66/151
-0.0018075420649278783,0.008103392622539566,-0.0023822090559680684,0.004746255507041674,0.0022729395975161024,0.004213810499199786,-0.003310152202377098,-0.017540967170764112,-0.007468974415531529
2019/04/14,23:23:01
75/151,67/151
-0.003574548285558055,0.0013868448080484024,0.00450594967915283,-0.005181117862154855,0.011096517058649079,7.05319209547319E-4,-0.0034950922540439404,8.837538282667739E-5,-0.0092723421271774
2019/04/14,23:23:04
76/151,67/151
0.004781920694481315,9.401143678793131E-5,0.0011733172934370079,0.014695556200630849,-0.005693385430121031,-0.02084079746057755,0.0092483033571561,-5.90044838625426E-4,0.012006280298295403
2019/04/14,23:23:07
77/151,67/151
-0.016429753315001266,-0.010546785953715975,-0.010367892309243648,0.011256842700736092,0.015551590147292474,-0.007215238326160537,0.006525776525205373,-3.709252208575874E-4,0.008574071521607678
2019/04/14,23:23:10
78/151,67/151
-0.0018075420649278783,0.008103392622539566,-0.0023822090559680684,0.004746255507041674,0.0022729395975161024,0.004213810499199786,-0.003310152202377098,-0.017540967170764112,-0.007468974415531529
2019/04/14,23:23:13
78/151,68/151
0.0060024791656501045,-0.0025494602066926126,-0.0015607401039049121,-0.00948012291946507,-0.011298867327415934,-0.016315032185927482,0.004145776597181699,-5.642025355213423E-4,-0.0024794992521032554
2019/04/14,23:23:18
78/151,69/151
0.005405748594678488,0.014967379132400977,0.017467048095071602,-0.0028211744474643773,0.007101597375519726,-0.015231120620841141,0.0014599421757076512,0.008896831933390342,0.0032229716334030937
2019/04/14,23:23:23
79/151,69/151
-0.016429753315001266,-0.010546785953715975,-0.010367892309243648,0.011256842700736092,0.015551590147292474,-0.007215238326160537,0.006525776525205373,-3.709252208575874E-4,0.008574071521607678
2019/04/14,23:23:27
79/151,70/151
-0.0035536638547008434,0.007658947709032712,0.004253747099764055,-6.598901201723441E-4,0.00950783840898569,0.001429678498260296,0.004451773908037537,0.01131707867578752,0.006108069406460328
2019/04/14,23:23:30
79/151,71/151
0.007143122380360724,-0.01299546624299962,-0.0060508533417429605,6.461242822552889E-4,0.0062468510989060755,-0.006509496915005653,6.186967124417377E-4,0.005031606846891368,-0.002830288822927485
2019/04/14,23:23:32
79/151,72/151
0.005405748594678488,0.014967379132400977,0.017467048095071602,-0.0028211744474643773,0.007101597375519726,-0.015231120620841141,0.0014599421757076512,0.008896831933390342,0.0032229716334030937
2019/04/14,23:23:37
80/151,72/151
0.002776744503504198,-3.133605009587176E-5,0.005138452901301983,0.0025866088747975996,-0.005878256728709737,0.005923492206716939,-0.008871157506188724,0.00829042665967969,-0.007710560267271594
2019/04/14,23:23:40
81/151,72/151
0.0026871703289657787,0.0024636171010060785,-0.015117810291619977,-0.003131347370983491,-0.0010631971492958909,0.0013644173146457432,0.0021572466931986806,-0.013488950467947111,-0.006394154037588914
2019/04/14,23:23:45
82/151,72/151
0.007143122380360724,-0.01299546624299962,-0.0060508533417429605,6.461242822552889E-4,0.0062468510989060755,-0.006509496915005653,6.186967124417377E-4,0.005031606846891368,-0.002830288822927485
2019/04/14,23:23:48
82/151,73/151
0.005734134469288953,0.0043081712162968255,7.393896493255872E-4,-0.01447122709343911,-0.007330781917300702,-0.00178917096075584,-0.006950790994177464,-1.2203621675403904E-4,0.018776353828234588
2019/04/14,23:23:51
82/151,74/151
-0.012638588899597514,-0.007385004479301219,-0.004530142326603617,0.006383029747213286,0.007225709007829401,0.01862553261551047,-0.002388644023146551,0.013307052641808072,0.01609272996738555
2019/04/14,23:23:54
82/151,75/151
0.0026871703289657787,0.0024636171010060785,-0.015117810291619977,-0.003131347370983491,-0.0010631971492958909,0.0013644173146457432,0.0021572466931986806,-0.013488950467947111,-0.006394154037588914
2019/04/14,23:23:58
84/151,75/151
0.0018467284559781022,-0.018167556470791144,-0.0023799036529013624,0.01060155585400029,0.017014253472887344,-0.010595651244157185,0.0015734179674242587,-0.0038007125850089626,0.004320824975196388
2019/04/14,23:24:02
85/151,75/151
0.0013044939999740106,-0.013627696842223955,0.0012058012377291314,-7.381343061476798E-4,-0.004338496661017589,0.01110608518207755,-0.010095430381871143,0.014937809106708774,-0.009662215770171002
2019/04/14,23:24:07
86/151,75/151
-0.012638588899597514,-0.007385004479301219,-0.004530142326603617,0.006383029747213286,0.007225709007829401,0.01862553261551047,-0.002388644023146551,0.013307052641808072,0.01609272996738555
2019/04/14,23:24:10
86/151,76/151
0.009799590752589717,0.005385039775089391,-0.003600691442775202,-0.00326919626018061,-0.011402292445587561,0.00969856995317489,0.010754183708126466,0.008081135018541434,0.008152970035039031
2019/04/14,23:24:12
86/151,77/151
-0.012772726862002742,-0.006269432312772827,0.004854241226590193,-8.681544673224597E-4,0.0018242552367262934,-0.011325089966778792,0.0031975184564307603,0.0017396777644776151,0.006350604413908896
2019/04/14,23:24:16
86/151,78/151
0.0013044939999740106,-0.013627696842223955,0.0012058012377291314,-7.381343061476798E-4,-0.004338496661017589,0.01110608518207755,-0.010095430381871143,0.014937809106708774,-0.009662215770171002
2019/04/14,23:24:20
86/151,79/151
-0.004059605552175046,-0.010774177112033816,-0.006468915999046622,0.014323136877701077,0.012111400750041815,-8.983713439547451E-4,0.01258972244179483,-8.278190463210204E-4,0.008732362838830963
2019/04/14,23:24:25
87/151,79/151
0.008815068883417576,-0.004520127454995966,-0.0013521621301372131,0.0065306086346768434,0.009759128533534646,0.005515382659491666,0.0101504042741417,0.012663369936144343,-0.007195896139477697
2019/04/14,23:24:29
88/151,79/151
-0.012772726862002742,-0.006269432312772827,0.004854241226590193,-8.681544673224597E-4,0.0018242552367262934,-0.011325089966778792,0.0031975184564307603,0.0017396777644776151,0.006350604413908896
2019/04/14,23:24:32
89/151,79/151
-0.006849576469856485,-0.0042208762985297445,-0.005345806239931462,0.008577257583329317,-0.019058531076171434,-0.008021150756300008,-0.01308088180806271,-0.007498683106099146,-0.014939790632702933
2019/04/14,23:24:35
89/151,80/151
-2.3393225848989275E-4,0.014580724887317455,0.012218664066312248,-0.002334723877367006,-2.975616336389937E-4,-0.002039854915779968,0.006522638140661379,0.013129097322010834,-0.00464459038301674
2019/04/14,23:24:39
89/151,81/151
0.008815068883417576,-0.004520127454995966,-0.0013521621301372131,0.0065306086346768434,0.009759128533534646,0.005515382659491666,0.0101504042741417,0.012663369936144343,-0.007195896139477697
2019/04/14,23:24:42
89/151,82/151
0.00851622919887054,0.016369581407225327,0.0012187930656400543,-0.0023891377844244945,-0.008083397948106655,-0.012055471524431139,0.007343973156942449,0.009464160221827292,0.015308148001156648
2019/04/14,23:24:44
90/151,82/151
-0.010132776332641999,0.004759114421778529,-8.954138214823694E-4,0.004876822658622386,0.01149232068321629,-0.005542185334461916,0.0063555469766003615,0.005791843498156195,-0.0021657435207455035
2019/04/14,23:24:47
91/151,82/151
-2.3393225848989275E-4,0.014580724887317455,0.012218664066312248,-0.002334723877367006,-2.975616336389937E-4,-0.002039854915779968,0.006522638140661379,0.013129097322010834,-0.00464459038301674
2019/04/14,23:24:50
91/151,83/151
0.01731475996633643,-0.0040624183536350535,0.008605772780327123,0.013027266682414145,0.015736780608568677,6.748123874308594E-4,-0.010522985145358446,-0.007446010926144855,0.005815486856016055
2019/04/14,23:24:54
91/151,84/151
0.016748024570396033,0.006574759165397908,0.0036954820008177486,0.0035295920134908627,-0.00525488144101029,-0.022015715530085276,0.004176443342077455,-0.004930792880090538,-0.0105013879295391
2019/04/14,23:25:00
91/151,85/151
-0.010132776332641999,0.004759114421778529,-8.954138214823694E-4,0.004876822658622386,0.01149232068321629,-0.005542185334461916,0.0063555469766003615,0.005791843498156195,-0.0021657435207455035
2019/04/14,23:25:03
92/151,85/151
-0.007523621293197355,-0.009904219209374681,0.01259394702819034,-0.016528256399191275,-0.0038301624920912495,-0.0013741442678203743,-0.004047624514680485,-0.002613452892493085,0.020468336822552485
2019/04/14,23:25:07
92/151,86/151
-0.00634332572393655,0.00982500612628163,0.004332371531831436,-0.013061978735947284,0.014317252787890965,0.013334704324184129,0.009155269759484145,0.009383436374407401,0.016623722136620164
2019/04/14,23:25:09
93/151,86/151
0.016748024570396033,0.006574759165397908,0.0036954820008177486,0.0035295920134908627,-0.00525488144101029,-0.022015715530085276,0.004176443342077455,-0.004930792880090538,-0.0105013879295391
2019/04/14,23:25:14
94/151,86/151
-0.0021957834264136125,-0.015190430776650393,-0.00500521318697004,-0.013805491656054863,0.008703311025952126,-0.017192858014178688,-0.005671781132920021,-0.003940237537034595,0.008746030556629238
2019/04/14,23:25:16
94/151,87/151
0.005272329278454795,0.001086094421345515,0.014815288533678453,-0.011296624763366854,0.005113710986382582,0.002661854601631205,0.004254205316634492,0.001215777689024338,-0.011294232656362615
2019/04/14,23:25:19
95/151,87/151
-0.00634332572393655,0.00982500612628163,0.004332371531831436,-0.013061978735947284,0.014317252787890965,0.013334704324184129,0.009155269759484145,0.009383436374407401,0.016623722136620164
2019/04/14,23:25:23
97/151,87/151
0.008653534390438557,-0.006270916370681967,0.001498082595401074,-0.0025321681490807733,0.009588617867254373,0.0018651007179995207,0.00824328852598816,0.0067778358528564325,-0.005664828269881638
2019/04/14,23:25:27
97/151,88/151
3.0232661788626505E-4,0.004465827950412553,-9.705893734772387E-5,0.01401869526410561,-0.010502298120947825,-0.003896471677667257,-0.00689320059168845,0.003362233085741281,0.015357685088214994
2019/04/14,23:25:34
97/151,89/151
0.005272329278454795,0.001086094421345515,0.014815288533678453,-0.011296624763366854,0.005113710986382582,0.002661854601631205,0.004254205316634492,0.001215777689024338,-0.011294232656362615
2019/04/14,23:25:37
97/151,90/151
-0.008130978050597502,-0.013172811170898444,-0.008182489394664613,0.0028728681127162814,-0.0034489595219481233,-0.006906337835565744,-0.018258737391710043,-0.02100212650176015,0.011654362444731881
2019/04/14,23:25:41
98/151,90/151
0.010260542619670618,-0.011561469605933978,0.00360033821314649,-0.009699386146685742,0.004465555624857407,0.008515178494897462,-0.0035651295338942103,-0.014500587161042546,-0.0070631671033611
2019/04/14,23:25:45
99/151,90/151
3.0232661788626505E-4,0.004465827950412553,-9.705893734772387E-5,0.01401869526410561,-0.010502298120947825,-0.003896471677667257,-0.00689320059168845,0.003362233085741281,0.015357685088214994
2019/04/14,23:25:49
100/151,90/151
-0.014767216239860558,-0.010145391222847494,0.0202404741283074,0.0057639240655073375,0.011012890643159735,-0.003847497505627181,0.013011133982150157,-0.010386467668148967,-1.246128103772684E-4
2019/04/14,23:25:53
101/151,90/151
-0.0028306035547385772,0.006359838845835325,0.01788382874565305,8.253835100449809E-5,6.355512999162965E-4,0.014804282065832203,0.0019861048000537514,-0.008140921021617346,0.0077075534752117075
2019/04/14,23:25:58
101/151,91/151
0.010260542619670618,-0.011561469605933978,0.00360033821314649,-0.009699386146685742,0.004465555624857407,0.008515178494897462,-0.0035651295338942103,-0.014500587161042546,-0.0070631671033611
2019/04/14,23:26:01
101/151,92/151
-0.005237842925783215,0.004430953112236798,-0.010076588472137889,-0.004932008662579534,-0.008940380921965509,0.0070429568905965596,-8.921742083062385E-4,-0.014119498536058626,0.011087631302030446
2019/04/14,23:26:05
102/151,92/151
-0.003763536184340196,-0.0029930376870316066,0.0023682126216696495,0.01753043631947826,0.011445075511037614,-0.015501056725232257,0.010214214475109236,0.007642716735940372,0.004158675016466347
2019/04/14,23:26:08
102/151,93/151
-0.0028306035547385772,0.006359838845835325,0.01788382874565305,8.253835100449809E-5,6.355512999162965E-4,0.014804282065832203,0.0019861048000537514,-0.008140921021617346,0.0077075534752117075
2019/04/14,23:26:11
102/151,94/151
0.005221816417502681,-0.0036182997607679054,0.016938984633221084,-6.25217868572559E-4,-0.013399833180697469,0.009253207035800735,-0.007001452496745785,0.004542879102856294,-0.0012195896621916905
2019/04/14,23:26:16
102/151,95/151
-0.010770796062252825,0.009863457486409079,-0.002693878211025534,0.02018837823492816,0.006874969181288557,-0.0060832937104604735,-0.004309242350866073,-0.008666315396215539,0.006637920382912606
2019/04/14,23:26:18
103/151,95/151
-0.003763536184340196,-0.0029930376870316066,0.0023682126216696495,0.01753043631947826,0.011445075511037614,-0.015501056725232257,0.010214214475109236,0.007642716735940372,0.004158675016466347
2019/04/14,23:26:21
104/151,95/151
-9.529313024888293E-4,-4.4671830331504195E-4,-0.007753036732410819,0.008961892826920658,0.0067527846026244395,-0.007548807449665124,-0.012255677596763302,0.0023844121211037943,-0.002261665436678324
2019/04/14,23:26:26
104/151,96/151
0.0020682453236299738,0.017219415623660736,0.004855295757890746,-0.010332444938389624,-0.009176804915743254,0.003025508710400044,-4.386140367897834E-5,-0.005673353311584733,5.620041923051896E-4
2019/04/14,23:26:30
104/151,97/151
-0.010770796062252825,0.009863457486409079,-0.002693878211025534,0.02018837823492816,0.006874969181288557,-0.0060832937104604735,-0.004309242350866073,-0.008666315396215539,0.006637920382912606
2019/04/14,23:26:35
105/151,97/151
0.002714054981535194,-0.010300965540810034,0.00844561198257208,0.01288893142218905,-0.0029792867615769086,-5.756058707327288E-4,0.0016692940373180792,0.0075154449569330515,0.004440189294418863
2019/04/14,23:26:39
105/151,98/151
-0.013228368343326486,-0.009874132407251799,9.553814351753861E-4,0.009403426003465836,0.00870948528510112,0.007777100443908303,-0.00702714332330899,-0.0026335503316735846,-0.003420130674837126
2019/04/14,23:26:43
106/151,98/151
0.0020682453236299738,0.017219415623660736,0.004855295757890746,-0.010332444938389624,-0.009176804915743254,0.003025508710400044,-4.386140367897834E-5,-0.005673353311584733,5.620041923051896E-4
2019/04/14,23:26:46
107/151,98/151
2.901649590452797E-4,0.014608181515540875,1.5072498642741683E-4,0.011150007624803613,-0.00692650385292449,-0.011419253077100655,0.012917167203810838,-0.0028050748024420705,-0.0031966834987131156
2019/04/14,23:26:51
107/151,99/151
-0.004269903216045142,0.01072071135646407,-0.018404002175207337,-0.002620601788487685,0.0017936244407097818,-0.005453406370145916,4.4236056240825293E-4,0.01653318910289222,0.019013993992417943
2019/04/14,23:26:58
107/151,100/151
-0.013228368343326486,-0.009874132407251799,9.553814351753861E-4,0.009403426003465836,0.00870948528510112,0.007777100443908303,-0.00702714332330899,-0.0026335503316735846,-0.003420130674837126
2019/04/14,23:27:02
107/151,101/151
-0.005818129791474708,0.010465783935617305,-0.01841617764828279,0.00810444723020347,0.005859149745760118,0.00489185691064142,0.002768844008990936,0.0023929821484843534,0.014594037147409417
2019/04/14,23:27:10
107/151,103/151
0.006240259156356789,0.004281699965704231,-0.007976060750706693,0.006791022452655428,-0.0026187854982473134,-0.016784933534069287,-0.015240683202048633,-0.00824602809200158,0.006376753899836616
2019/04/14,23:27:13
107/151,104/151
-0.004269903216045142,0.01072071135646407,-0.018404002175207337,-0.002620601788487685,0.0017936244407097818,-0.005453406370145916,4.4236056240825293E-4,0.01653318910289222,0.019013993992417943
2019/04/14,23:27:18
107/151,105/151
0.01649431038081837,0.0011127079180998506,-0.008746930799307296,0.002261625691563735,-0.017467788593099304,0.00827681630094046,-0.002544265780113986,0.0017883852596352907,0.014402524718270585
2019/04/14,23:27:22
107/151,106/151
-0.006442106060168266,-0.007282926924899038,0.004527651688871969,-0.002805285496270098,-0.004356753352084988,-0.012171205432236886,0.013692819652931012,-0.00801653096641443,0.007294433260292438
2019/04/14,23:27:27
107/151,107/151
-0.01990794334332028,-0.01547833370704684,0.004563975308357434,-0.008270740040867478,-0.01619353793788994,-0.023803098944859154,0.026116003728277132,-0.030472864184416526,0.028485406010647835
2019/04/14,23:27:31
107/151,108/151
-0.040820647288981715,-0.038395196773542466,0.02398094285360576,-0.01780260922009507,-0.03005422088125938,-0.02641708536012526,0.03602714262835495,-0.04228715829483026,0.0328570592708718
2019/04/14,23:27:34
108/151,108/151
-0.052771884023351236,-0.060630340241624614,0.04006379598202013,-0.03949425927159564,-0.04217267299500019,-0.048474753140794136,0.05489053474233242,-0.054255175831606745,0.03649165094392534
2019/04/14,23:27:39
109/151,108/151
-0.04257565445808194,-0.05682486527107554,0.03024402454504952,-0.03330349705694727,-0.03791819292907562,-0.0453273892797805,0.05093933727959868,-0.04972229148298731,0.03179473012282183
2019/04/14,23:27:44
109/151,109/151
-0.06328441040174877,-0.07101257533400855,0.03286769152578187,-0.038293811358217134,-0.04083316551142009,-0.06113637995067135,0.06859718649194911,-0.05549333909510098,0.035188143403295215
2019/04/14,23:27:47
109/151,110/151
-0.06482519642351235,-0.07394015741217955,0.04952097521339675,-0.053722878282345995,-0.0636677262886112,-0.07963659803881597,0.06893560822510517,-0.06551642068779101,0.049230627772092056
2019/04/14,23:27:56
109/151,111/151
-0.07328256445735422,-0.07455659325134328,0.069039814799692,-0.055708160471725096,-0.07101537114863236,-0.08436219887823694,0.07622348669819452,-0.08578481197843839,0.05224397689038035
2019/04/14,23:27:59
109/151,112/151
-0.08444886000744027,-0.08027920355772064,0.07721691207422401,-0.06500139001599937,-0.07142878004568216,-0.08822749095375683,0.0900997392253868,-0.10549010652924348,0.05555809564549708
2019/04/14,23:28:04
110/151,112/151
-0.09325066777972588,-0.09352953158973766,0.09585957812643829,-0.07292141233725043,-0.09316258050860804,-0.10127937620601746,0.11169365584811863,-0.12831771185078825,0.07814442374836861
2019/04/14,23:28:06
111/151,112/151
-0.0995428111748102,-0.11216062385429659,0.10051742268918004,-0.09059028086038982,-0.1111770963477893,-0.11108212647337115,0.11366470133001709,-0.12905360675625355,0.07912372205180258
2019/04/14,23:28:13
111/151,113/151
-0.10805036381698511,-0.11768822044060234,0.10276364576179221,-0.09103982618971103,-0.12730102857079095,-0.12719883218610595,0.1138161983445936,-0.13784894389800795,0.08904839228526437
2019/04/14,23:28:18
112/151,113/151
-0.11945154304699866,-0.12869204351358024,0.10671470450434159,-0.09250397302732374,-0.14016549494189415,-0.13074002045822244,0.11418268942332159,-0.14595447902300296,0.11151952865894824
2019/04/14,23:28:21
113/151,113/151
-0.13184878231778133,-0.1328439366277336,0.11499526629751952,-0.09268494063542942,-0.1482783181728094,-0.14683770574390465,0.13336937412419525,-0.16270689527646418,0.13339713091965266
2019/04/14,23:28:24
114/151,113/151
-0.12509884015116005,-0.12332323977989139,0.09376350140669114,-0.08252078177079267,-0.12579235697984453,-0.14613892557398875,0.118365188909976,-0.1570496647707052,0.11414781847735818
2019/04/14,23:28:28
115/151,113/151
-0.11261336270523983,-0.11759880013714097,0.08145694407847874,-0.07995447851353255,-0.11608480486371582,-0.1368939105061426,0.10188461544020219,-0.14238060384223206,0.09678428435443978
2019/04/14,23:28:32
115/151,114/151
0.006240259156356789,0.004281699965704231,-0.007976060750706693,0.006791022452655428,-0.0026187854982473134,-0.016784933534069287,-0.015240683202048633,-0.00824602809200158,0.006376753899836616
2019/04/14,23:28:40
116/151,114/151
-0.006952385423349188,-0.007251169310742854,0.0064033646699157894,-0.012697953841216955,0.020130333716750284,-0.010800154445135633,-0.007021931279851521,0.0019231110901190927,-0.004567618470878105
2019/04/14,23:28:43
117/151,114/151
0.004361386605433994,0.012600959605948325,-0.010280091576840773,0.008847473580086609,0.017489494041314366,0.011590741109947088,0.009697284166285411,-0.008378882386489447,0.006313519257358829
2019/04/14,23:28:49
117/151,115/151
-0.11261336270523983,-0.11759880013714097,0.08145694407847874,-0.07995447851353255,-0.11608480486371582,-0.1368939105061426,0.10188461544020219,-0.14238060384223206,0.09678428435443978
2019/04/14,23:28:53
117/151,116/151
-0.11101157119627116,-0.10105668316463046,0.06859767567192004,-0.05925075526885149,-0.10831678257904603,-0.11992395628893243,0.08795638735453112,-0.12174802236207216,0.09044290049774747
2019/04/14,23:28:56
117/151,117/151
-0.11849287624325618,-0.12300558671579956,0.09040217612380895,-0.06496607342130523,-0.12390166031043671,-0.1336841917439846,0.10434842262129557,-0.13330036442592316,0.10404280398542198
2019/04/14,23:29:01
118/151,117/151
-0.10039464225032851,-0.11045078829137321,0.07621640458800197,-0.042786837758542896,-0.12111277008469147,-0.11110539817085838,0.09002027183563621,-0.11849020498146375,0.08241761697613925
2019/04/14,23:29:07
118/151,118/151
-0.11832005778658161,-0.12343117594982515,0.08877391039972121,-0.059617523097314995,-0.12354108902678508,-0.13006030643929745,0.10633082640823349,-0.11983574970631877,0.10015438560864667
2019/04/14,23:29:11
118/151,119/151
-0.12805532001426148,-0.1410641712412511,0.09304076179178801,-0.07239139670510011,-0.1319634022259187,-0.13989230818148313,0.11115107445761181,-0.1291831584941006,0.1178908149787696
2019/04/14,23:29:17
118/151,120/151
-0.1433437149055699,-0.1557432639044211,0.1076013651391174,-0.07758254878488383,-0.1535020098900168,-0.14613332879568092,0.11523397843515462,-0.14471989040189523,0.1262545549377292
2019/04/14,23:29:24
119/151,120/151
-0.15100458725383872,-0.17062506839846223,0.11562685365435924,-0.09326166429160238,-0.17414832836474797,-0.16691308389584864,0.12181672991706992,-0.14826978967650686,0.13768820313976854
2019/04/14,23:29:28
119/151,121/151
-0.15261272743674884,-0.1707623763131657,0.12408104272157339,-0.09856781469063956,-0.19667102710602097,-0.17333660072084597,0.13811216617742897,-0.1691233729282122,0.1491988824143122
2019/04/14,23:29:34
119/151,122/151
-0.16484199716104822,-0.19162618168269055,0.14509454459419255,-0.1174568400621288,-0.21490888408405678,-0.1903835091785387,0.14903106719870546,-0.17856675286978235,0.17203944189601433
2019/04/14,23:29:38
119/151,123/151
-0.1831821093101235,-0.21046783532516972,0.1523135651898776,-0.12551726950012973,-0.23296827558916422,-0.20109409085393776,0.1604535910623402,-0.19377919116168457,0.18539658245829135
2019/04/14,23:29:43
120/151,123/151
-0.18921577628934477,-0.2171580610181755,0.16499868652686683,-0.128703514152689,-0.24655627393854546,-0.2021634915110872,0.1617821249296691,-0.20482911260154876,0.20415506042011822
2019/04/14,23:29:48
120/151,124/151
-0.2106798189959068,-0.23731669760142038,0.17764611248214687,-0.13922044853923116,-0.26783904277732606,-0.22427954509058784,0.16777838688755461,-0.22470780927557116,0.21152211071409055
2019/04/14,23:29:51
121/151,124/151
-0.21856366595174903,-0.2458451106216628,0.19585159799616284,-0.14859641749025967,-0.2731794608081738,-0.23021937128499523,0.17676908641975508,-0.246025113065296,0.22050066694887344
2019/04/14,23:29:56
121/151,125/151
-0.2245179766190836,-0.25733341647810226,0.21171111635818532,-0.15204405644777025,-0.2744896219767497,-0.23851155634281843,0.18072935457656586,-0.2579039510928598,0.24148404424689693
2019/04/14,23:30:01
122/151,125/151
-0.2362916507579615,-0.25828968959145027,0.22103302828888993,-0.16020880890333292,-0.297261048114149,-0.25283125253842453,0.1863294556451756,-0.27391137367012813,0.2516478490042638
2019/04/14,23:30:05
122/151,126/151
-0.25919471109824294,-0.27799685704714944,0.23978274203289962,-0.18284303964164333,-0.30907652424587956,-0.25875101383480087,0.1985723327759335,-0.28073254170737516,0.26822771139922086
2019/04/14,23:30:10
123/151,126/151
-0.2692913669797401,-0.2846893468714858,0.24342404813450494,-0.19076551642222564,-0.3233587619970156,-0.27378223818593783,0.21746573771168146,-0.28279726915869013,0.27409715004754653
2019/04/14,23:30:14
124/151,126/151
-0.27332144691669674,-0.29145409133013017,0.2622501704708888,-0.1924331568976549,-0.3441104953760211,-0.2791536359573096,0.23349672814704964,-0.2886868965081505,0.29376757933217473
2019/04/14,23:30:18
125/151,126/151
-0.2960488509072324,-0.31405808723687834,0.2731439263313301,-0.2108342227834182,-0.35789043651487334,-0.29019159573118997,0.2481397842405248,-0.3070842331504762,0.3037016079503249
2019/04/14,23:30:25
125/151,127/151
-0.3179069003058406,-0.31998256740287984,0.29437351075475127,-0.21765675448971597,-0.37686963785800875,-0.2981976547708879,0.2679613502065645,-0.3174768596350798,0.3174083290729894
2019/04/14,23:30:29
126/151,127/151
-0.32682602473038136,-0.3257038301261011,0.3027517575002693,-0.23174450581015305,-0.39166580659966954,-0.32099723125367213,0.2821473693477877,-0.3258387742185491,0.33814502337657315
2019/04/14,23:30:37
126/151,128/151
-0.33883542198555217,-0.3358735143482215,0.3207848454390588,-0.23500736754302629,-0.4140208102102529,-0.3227896513104156,0.28355598666583987,-0.32940504451355207,0.3488666032881579
2019/04/14,23:30:40
126/151,129/151
-0.3404259793398407,-0.34951433659871634,0.3262893837000222,-0.253367032778553,-0.43384440018937587,-0.3300399359370217,0.30088827253385403,-0.3360714262209469,0.3670251766409214
2019/04/14,23:30:44
126/151,130/151
-0.3629915546908831,-0.35978997687469333,0.33132127012554863,-0.2553558843518189,-0.4366234829512662,-0.33942770584115783,0.32275390231885476,-0.35610637966673453,0.3736630126524126
2019/04/14,23:30:49
127/151,130/151
-0.37234187824185233,-0.36098921705205167,0.34528103060821824,-0.2748589206408966,-0.4575577330948635,-0.3474013816979995,0.32824712397071126,-0.37610280103481153,0.37383147172944986
2019/04/14,23:30:57
127/151,131/151
-0.38730995592340767,-0.36610521382012556,0.35212221689311785,-0.28221796065513244,-0.479366864878757,-0.35678819201449835,0.3453209135310721,-0.37757202020663067,0.37601393945025735
2019/04/14,23:31:02
128/151,131/151
-0.3885797434042826,-0.3791100382057474,0.3628442556368581,-0.282298270141401,-0.4950688334432678,-0.3781334829851763,0.3625078339256733,-0.39333703348815346,0.38269170302746086
2019/04/14,23:31:06
129/151,131/151
-0.3949102636113279,-0.3794998149357476,0.36803268384378024,-0.30304269360187364,-0.49821878163347977,-0.38920319388051094,0.3806472600953311,-0.4126438275005782,0.39368518993304424
2019/04/14,23:31:10
129/151,132/151
-0.3992985007592388,-0.39618691391023136,0.37920861140359285,-0.30474823582752714,-0.503153505365474,-0.40296388706782843,0.3966652368027644,-0.4171646056822323,0.41082964840047387
2019/04/14,23:31:14
130/151,132/151
-0.4079604399560826,-0.4090580770758193,0.3972563590596467,-0.32272013402524957,-0.5068841129717641,-0.42168864527790506,0.40174814165977996,-0.435174034518756,0.42994094560655305
2019/04/14,23:31:20
131/151,132/151
-0.4090331105858186,-0.4127057885541331,0.41685526646543514,-0.33421643130130674,-0.513194433074173,-0.43214129235396836,0.4166994041272098,-0.44049172793190816,0.45165319455974706
2019/04/14,23:31:27
132/151,132/151
-0.42706645477416083,-0.4229799988529624,0.41823606393252183,-0.3401947491018572,-0.531570975381271,-0.4519043884053141,0.42165379738948683,-0.4579006459641265,0.46655819625479705
2019/04/14,23:31:31
133/151,132/151
-0.41854579342677023,-0.40890734239351323,0.4090816243284084,-0.33951742596198214,-0.5118514080138621,-0.4415574420996198,0.41833041572296176,-0.4392126392768375,0.46397771359000356
2019/04/14,23:31:36
134/151,132/151
-0.4002712011845776,-0.3942529124355428,0.39203231708917813,-0.32901894918998903,-0.49117553885967863,-0.42562188564527953,0.4015888469532795,-0.4364140923002784,0.4431347595698186
2019/04/14,23:31:41
135/151,132/151
0.004361386605433994,0.012600959605948325,-0.010280091576840773,0.008847473580086609,0.017489494041314366,0.011590741109947088,0.009697284166285411,-0.008378882386489447,0.006313519257358829
2019/04/14,23:31:45
136/151,132/151
9.651289719752104E-4,0.007146267396902672,9.691967848366994E-4,-0.0030381001948745906,0.01450247971003201,-0.0024110346479007273,-0.003954687508456876,0.01457206565924198,-0.0012593426247147956
2019/04/14,23:31:50
137/151,132/151
-0.012909135115897336,0.001078536937069956,-0.006435135616268678,0.017338561123317796,0.0024548115823649144,-0.0022635240717840564,0.004554508217024442,-0.007320161055860185,0.00916478546275257
2019/04/14,23:31:57
138/151,132/151
-0.4002712011845776,-0.3942529124355428,0.39203231708917813,-0.32901894918998903,-0.49117553885967863,-0.42562188564527953,0.4015888469532795,-0.4364140923002784,0.4431347595698186
2019/04/14,23:32:01
138/151,133/151
-0.3932669479036333,-0.3773333112653824,0.383532116383708,-0.3171669516511829,-0.48160116499409067,-0.4065442607724437,0.3796902170815392,-0.43248210145983146,0.4377057996718432
2019/04/14,23:32:06
138/151,134/151
-0.3807266133657781,-0.3692323773958523,0.36719608369826773,-0.3082213729124224,-0.4750163899967953,-0.38752574912128696,0.3737953516946589,-0.4114290902940137,0.4309274602618437
2019/04/14,23:32:12
139/151,134/151
-0.012909135115897336,0.001078536937069956,-0.006435135616268678,0.017338561123317796,0.0024548115823649144,-0.0022635240717840564,0.004554508217024442,-0.007320161055860185,0.00916478546275257
2019/04/14,23:32:16
139/151,135/151
-0.0034441736333719625,-0.008358343339072271,-0.005023729052255477,0.0011783081396216852,-0.0015593427156966357,0.010966888177919784,0.0019970387181347726,0.007026218829572757,-0.0024676109137623005
2019/04/14,23:32:25
140/151,135/151
0.015003311086708123,-0.0019663144432330096,0.0021443964891014267,-0.010255690452101352,0.014903148873393144,1.3843056298702694E-4,-0.008006831709613176,3.271122448317955E-4,-0.0022481373149825915
2019/04/14,23:32:31
140/151,136/151
-0.3807266133657781,-0.3692323773958523,0.36719608369826773,-0.3082213729124224,-0.4750163899967953,-0.38752574912128696,0.3737953516946589,-0.4114290902940137,0.4309274602618437
2019/04/14,23:32:35
141/151,136/151
-0.3680026107704644,-0.3579576712179499,0.34612702602380757,-0.30684013408521094,-0.46907618427935205,-0.3737945417599182,0.3680287677855868,-0.4073170035836048,0.41482985401636546
2019/04/14,23:32:40
141/151,137/151
-0.34515744851435953,-0.348104908051548,0.34379692654197125,-0.2951726127589064,-0.45628337980783457,-0.35842736340112313,0.3502651725446605,-0.39012658808607786,0.40617793069525754
2019/04/14,23:32:46
141/151,138/151
0.015003311086708123,-0.0019663144432330096,0.0021443964891014267,-0.010255690452101352,0.014903148873393144,1.3843056298702694E-4,-0.008006831709613176,3.271122448317955E-4,-0.0022481373149825915
2019/04/14,23:32:51
142/151,138/151
0.004513483311235848,0.01365535017776944,-0.01927094279461883,-0.006648969469496812,0.004525119387237375,-0.012240188052320551,-0.007705035437211708,-0.008030761522202185,0.02060494560877138
2019/04/14,23:32:55
142/151,139/151
-0.013790573229271644,0.012525945057377842,-0.01822266867845223,0.0089426971154403,-0.006459245963152938,0.010566318628674529,0.005094662240249153,-0.007030804965076702,-8.151127658011098E-4
2019/04/14,23:32:59
143/151,139/151
-0.34515744851435953,-0.348104908051548,0.34379692654197125,-0.2951726127589064,-0.45628337980783457,-0.35842736340112313,0.3502651725446605,-0.39012658808607786,0.40617793069525754
2019/04/14,23:33:03
144/151,139/151
-0.33596811710986857,-0.3280481941206103,0.33566269286627615,-0.29136643601530227,-0.45080620002657296,-0.34302555464734563,0.32759545204678603,-0.39008858779912153,0.39762720283181385
2019/04/14,23:33:08
144/151,140/151
-0.31971663785975396,-0.31487627583362304,0.3278497137620609,-0.2892763958295253,-0.4411173634197599,-0.3310780132040797,0.3090235712690493,-0.37218413555458046,0.38725116302076223
2019/04/14,23:33:13
144/151,141/151
-0.013790573229271644,0.012525945057377842,-0.01822266867845223,0.0089426971154403,-0.006459245963152938,0.010566318628674529,0.005094662240249153,-0.007030804965076702,-8.151127658011098E-4
2019/04/14,23:33:19
144/151,142/151
-0.004006001140410607,-0.006357040327480825,0.0037759516597641284,-0.010465424810319866,-0.0033875680059114966,-0.004145221656410014,0.0034931628866534566,0.008207377517937778,0.013689446114032432
2019/04/14,23:33:23
145/151,142/151
0.013723006996455718,-7.456260008671407E-4,-0.01775400667981127,-0.0026105594941487256,0.018387021639472454,0.008048489241470462,-0.009618612856011385,-0.0032785217810069756,0.008546255565957703
2019/04/14,23:33:30
146/151,142/151
-0.31971663785975396,-0.31487627583362304,0.3278497137620609,-0.2892763958295253,-0.4411173634197599,-0.3310780132040797,0.3090235712690493,-0.37218413555458046,0.38725116302076223
2019/04/14,23:33:34
146/151,143/151
-0.3131453478636588,-0.30878769179381665,0.32725859400470564,-0.27571029932205987,-0.43163959054147116,-0.33092835639281093,0.3084459742343765,-0.370100663928764,0.37998348709631263
2019/04/14,23:33:41
146/151,144/151
-0.2911045891917048,-0.29030363690035094,0.32141457451982197,-0.2681828781650277,-0.4156584854195796,-0.31646623111976113,0.3010710136683039,-0.3581973120254843,0.3619698553132116
2019/04/14,23:33:46
147/151,144/151
0.013723006996455718,-7.456260008671407E-4,-0.01775400667981127,-0.0026105594941487256,0.018387021639472454,0.008048489241470462,-0.009618612856011385,-0.0032785217810069756,0.008546255565957703
2019/04/14,23:33:51
147/151,145/151
-0.002275320904408294,0.0037855251553097855,-0.011637166597311975,0.015548913817335508,0.012223240174993797,-0.0037377477180008025,0.011047200510329348,0.0014042127712309976,0.005165420927094272
2019/04/14,23:33:56
148/151,145/151
0.009175276034144773,0.001336489065480982,-0.007238417969445512,0.0022858987615083093,-0.0058290954509104265,0.004026123473499465,0.005974375233183142,-0.0044444915386935005,-0.01723682879516488
2019/04/14,23:33:59
149/151,145/151
-0.2911045891917048,-0.29030363690035094,0.32141457451982197,-0.2681828781650277,-0.4156584854195796,-0.31646623111976113,0.3010710136683039,-0.3581973120254843,0.3619698553132116
2019/04/14,23:34:05
149/151,146/151
-0.27206727426761274,-0.2747512765141545,0.3014911828763738,-0.24842952173195756,-0.41145319056941754,-0.2978723850561981,0.2836796023803742,-0.3439270547839063,0.33958179042409803
2019/04/14,23:34:11
150/151,146/151
-0.2588177202125739,-0.25814511048212885,0.29065377877528514,-0.247105123118059,-0.404560673949381,-0.2861209667579716,0.27451359000626757,-0.3427208809140703,0.3394820506060474
2019/04/14,23:34:17
151/151,146/151
0.009175276034144773,0.001336489065480982,-0.007238417969445512,0.0022858987615083093,-0.0058290954509104265,0.004026123473499465,0.005974375233183142,-0.0044444915386935005,-0.01723682879516488
